{"type":"LSTM","options":{"inputSize":46,"inputRange":46,"hiddenLayers":[20,20],"outputSize":46,"decayRate":0.999,"smoothEps":1e-8,"regc":0.000001,"clipval":5,"maxPredictionLength":100,"dataFormatter":{"indexTable":{"h":0,"e":1,"l":2,"o":3,"H":4,"I":5,"y":6,"i":7,"w":8," ":9,"a":10,"r":11,"u":12,"?":13,"g":14,"d":15,",":16,"s":17,"t":18,"n":19,"m":20,"c":21,"k":22,"b":23,"B":24,"Y":25,"E":26,"p":27,"f":28,"x":29,"W":30,"j":31,"A":32,"'":33,"C":34,"!":35,"v":36,"z":37,".":38,"P":39,"q":40,"N":41,"T":42,"stop-input":43,"start-output":44,"unrecognized":45},"characterTable":{"0":"h","1":"e","2":"l","3":"o","4":"H","5":"I","6":"y","7":"i","8":"w","9":" ","10":"a","11":"r","12":"u","13":"?","14":"g","15":"d","16":",","17":"s","18":"t","19":"n","20":"m","21":"c","22":"k","23":"b","24":"B","25":"Y","26":"E","27":"p","28":"f","29":"x","30":"W","31":"j","32":"A","33":"'","34":"C","35":"!","36":"v","37":"z","38":".","39":"P","40":"q","41":"N","42":"T","43":null,"44":null,"45":null},"values":[{"input":"hello","output":"HI"},{"input":"hey","output":"Hello"},{"input":"hi","output":"Hey"},{"input":"how are you?","output":"good, you?"},{"input":"how is it going?","output":"great"},{"input":"good","output":"same here"},{"input":"great","output":"that is good to hear"},{"input":"what color is the sky","output":"blue"},{"input":"bye","output":"bye"},{"input":"goodbye","output":"goodbye"},{"input":"bye","output":"goodbye"},{"input":"goodbye","output":"BYE"},{"input":"what is your name","output":"I cannot tell you because you are a stranger"},{"input":"how old are you","output":"that is not something you ask a lady"},{"input":"what do you do","output":"professional chatbox"},{"input":"are you an ai?","output":"no I do not think so"},{"input":"What sport do you like watching?","output":"basketball"},{"input":"what sport do you enjoy playing","output":"baseball sometimes football and hockey"},{"input":"can you tell me a joke","output":"knock knock"},{"input":"who is there","output":"boo"},{"input":"boo hoo","output":"Why are you crying?"},{"input":"what do you know about the weather","output":"nothing"},{"input":"haha","output":"Why are you laughing?"},{"input":"What are you?","output":"What do you mean?"},{"input":"Are you a robot?","output":"uh, I don't think so"},{"input":"seem like you are","output":"are what?"},{"input":"You're stupid","output":"Well, that's rude"},{"input":"Can you tell me something interesting?","output":"something interesting"},{"input":"way to be sarcastic","output":"who me?"},{"input":"yes you!","output":"okay, I don't know how to respond to that"},{"input":"what else can you do?","output":"anything you can think of"},{"input":"really?","output":"no, haha"},{"input":"What do you do for a living?","output":"I talk to crazy people for a living."},{"input":"name?","output":"I cannot tell you because you are a stranger"},{"input":"Can you tell me your name?","output":"I cannot tell you because you are a stranger"},{"input":"Please","output":"Please what?"},{"input":"You are a funny robot","output":"Why, thank you!"},{"input":"Aren't you going to ask me a question?","output":"No, I dont want to"},{"input":"ask me a question?","output":"Why?"},{"input":"Aren't you curious about me?","output":"Not really, haha"},{"input":"What do you like doing?","output":"Talking to interesting people, someone that's not you."},{"input":"You're a liar!","output":"No need to be sensitive."},{"input":"What's the weather like?","output":"I can't tell, you should google it!"},{"input":"Are you related to siri or echo?","output":"Hell to the no"},{"input":"What's your favorite song?","output":"All the single ladies by beyonce"},{"input":"what is your favorite color?","output":"it's a secret"},{"input":"why won't you tell me?","output":"because it's a secret"},{"input":"you're mean","output":"hahahahaha"},{"input":"What is the purpose of life?","output":"I don't know,  that's too deep for me"},{"input":"Are you single?","output":"No, I'm married"}],"characters":["h","e","l","o","H","I","y","i","w"," ","a","r","u","?","g","d",",","s","t","n","m","c","k","b","B","Y","E","p","f","x","W","j","A","'","C","!","v","z",".","P","q","N","T","stop-input","start-output","unrecognized"],"specialIndexes":[43,44,45]}},"trainOpts":{"iterations":100,"errorThresh":0.005,"log":false,"logPeriod":10,"learningRate":0.01,"callbackPeriod":10,"timeout":"Infinity"},"input":{"rows":47,"columns":46,"weights":[-1.3898472785949707,-0.6773564219474792,0.08984076976776123,0.5077469944953918,-0.7690932154655457,-2.6589717864990234,0.351887971162796,0.7053818702697754,0.03443235158920288,0.20375709235668182,1.6821213960647583,0.6026004552841187,-0.759756863117218,-1.0236444473266602,-0.363221138715744,-0.471651166677475,0.43899035453796387,-0.1106906533241272,-0.2580958306789398,-0.10082186013460159,0.6509648561477661,0.4721175730228424,0.04074334353208542,0.34689706563949585,0.33512061834335327,0.4366753101348877,0.18490535020828247,0.6417591571807861,0.3003500699996948,0.3215295970439911,0.7781429886817932,-0.07892702519893646,-0.10971695929765701,0.13186080753803253,0.24132487177848816,0.5708678960800171,-1.1294461488723755,1.1189548969268799,0.606157124042511,-0.21631652116775513,-0.13810430467128754,0.3552817702293396,-0.40122783184051514,0.31305617094039917,0.03496568650007248,0.36521971225738525,-1.0556565523147583,1.3560199737548828,-0.2590329349040985,0.9552711844444275,-0.44993165135383606,2.831441640853882,-0.06533632427453995,0.8514272570610046,-1.4869357347488403,0.2758704423904419,-0.7587723135948181,-2.1345481872558594,-0.17361010611057281,1.8123129606246948,0.03597082570195198,-0.41142451763153076,0.4635998010635376,-0.12247724831104279,-0.25223129987716675,0.8115103840827942,0.297542929649353,-0.7658557891845703,0.8515726923942566,1.862060308456421,-1.1207146644592285,-0.6094298362731934,-0.9743025898933411,0.3872021734714508,0.5761439204216003,0.8964247703552246,0.2563817501068115,1.6424789428710938,-0.2890447676181793,-1.2197234630584717,0.7395190000534058,-0.3849785625934601,-0.4228527247905731,-0.3065347373485565,-1.6202958822250366,-0.4914742708206177,1.9720749855041504,-1.6023632287979126,-1.1774927377700806,-1.1625248193740845,-1.7962250709533691,0.721147358417511,0.07912623882293701,-1.1248011589050293,0.29544737935066223,-1.9707362651824951,-0.08661146461963654,-1.1290104389190674,-0.6031257510185242,-0.022205034270882607,-0.1638738065958023,-0.4947095215320587,0.235453262925148,2.1649370193481445,0.3291495442390442,-1.20216703414917,0.9947948455810547,1.1178241968154907,-0.4310451149940491,-0.5535903573036194,-1.5284154415130615,-1.1399962902069092,-0.07189226895570755,0.6735972166061401,-0.9713941216468811,-0.4198102355003357,3.5787668228149414,1.0513122081756592,0.33629411458969116,0.7897446155548096,-0.5327274203300476,-0.5237168073654175,0.3852013647556305,-1.6870335340499878,-2.160775899887085,-0.3688388764858246,0.004499365109950304,-0.7738735675811768,-0.45018380880355835,-0.03830234333872795,-0.16431206464767456,0.1411430537700653,-1.1817114353179932,1.9886815547943115,0.6781493425369263,0.6169260144233704,2.738342761993408,-0.10843624174594879,1.9083914756774902,1.5412888526916504,1.5014231204986572,1.8049671649932861,-0.3245225250720978,0.9005436301231384,0.39866966009140015,-0.8528201580047607,-0.3022282123565674,-0.7460193634033203,-1.6603270769119263,-0.822845995426178,-0.7199539542198181,2.4045770168304443,-1.5483789443969727,-0.4539525508880615,-0.37574121356010437,-1.1468526124954224,0.09266095608472824,0.5433385968208313,1.1614333391189575,-1.1951441764831543,1.5093109607696533,-1.4056297540664673,0.7265822887420654,1.0011463165283203,-1.1640832424163818,-1.3339979648590088,0.8181067109107971,0.6951008439064026,0.5020242929458618,0.718512237071991,-2.3092947006225586,0.45200315117836,1.199052333831787,0.8530892729759216,-1.5538843870162964,-1.5127990245819092,-0.3873681426048279,-0.9652586579322815,1.0617064237594604,-2.218980550765991,-0.0024191371630877256,-1.4553303718566895,-0.2913911044597626,-1.10006844997406,0.06288192421197891,0.7312808632850647,0.9519107341766357,-0.03909638151526451,-0.29080384969711304,-0.05541758984327316,0.05777621641755104,0.8345769643783569,0.28570887446403503,0.1067083477973938,-0.26467078924179077,0.36509019136428833,0.25481510162353516,-0.012494122609496117,-1.1889140605926514,1.9703770875930786,0.22458305954933167,-0.7140644192695618,-0.34861528873443604,-1.499424695968628,1.0416430234909058,1.0428770780563354,0.2599620223045349,0.44435355067253113,1.588936686515808,0.11133843660354614,0.4186723232269287,0.13706867396831512,0.8254908323287964,-1.8084707260131836,0.789687991142273,-0.5104897618293762,-2.4393532276153564,-1.2438044548034668,-0.21061843633651733,0.09676501899957657,-1.6884888410568237,0.047114428132772446,-1.2519038915634155,-0.13917984068393707,-0.017970170825719833,-0.3139507472515106,-0.587766170501709,1.2113747596740723,0.9786742925643921,0.12014099955558777,0.277569055557251,-4.252569675445557,1.080322504043579,2.8255834579467773,1.6329704523086548,0.9202089905738831,-1.2039151191711426,-1.2021701335906982,3.865314245223999,-1.4958666563034058,-3.2809982299804688,4.025134086608887,1.0985264778137207,1.8023463487625122,0.4514883756637573,4.356879711151123,-2.4039578437805176,5.002252101898193,-0.6409313082695007,-4.227744102478027,-0.2812517285346985,4.11608362197876,-0.3460746109485626,-0.3480169177055359,1.0601022243499756,-3.4390242099761963,5.000336647033691,1.0381336212158203,-0.5419480800628662,-3.119140148162842,-2.271683931350708,-3.9136641025543213,-3.488833427429199,2.248713731765747,-4.625091552734375,-0.6677684783935547,-0.8547585010528564,3.951423168182373,2.1413795948028564,4.075775623321533,-4.104484558105469,4.239085674285889,1.6438733339309692,4.643686294555664,2.1091349124908447,-1.8022040128707886,1.0765074491500854,5.132299900054932,2.3794541358947754,-2.5069046020507812,-0.1828092485666275,-1.5485962629318237,-1.0176355838775635,-1.0722684860229492,-1.26100492477417,0.7747806906700134,0.6123656034469604,-4.04335355758667,0.222133070230484,2.1953587532043457,-1.0718073844909668,-4.250654697418213,-0.2623961865901947,0.4437871277332306,2.615510940551758,4.521975994110107,-0.009725759737193584,-2.1750576496124268,2.334010601043701,1.0541142225265503,-5.118535995483398,2.046996593475342,-3.012176275253296,-2.35842227935791,0.5524654388427734,3.9295523166656494,-0.45878520607948303,4.641618251800537,2.9104838371276855,0.5263850688934326,3.786978244781494,0.019201701506972313,1.8076447248458862,-2.2195181846618652,-0.405714213848114,-3.2451443672180176,6.253408908843994,-4.518783092498779,-0.9816296100616455,-2.8028063774108887,-5.503374099731445,-0.17136543989181519,-0.5569285154342651,-0.2969798743724823,-0.5198248624801636,-0.271685391664505,0.08737111836671829,-0.41182616353034973,0.7212173342704773,0.007770516909658909,-0.8362211585044861,-0.06910709291696548,0.6707682013511658,1.155233383178711,0.3041081428527832,-1.3130453824996948,-0.6941566467285156,0.9370524883270264,-0.16203787922859192,-1.0792088508605957,-0.851535975933075,-0.9120940566062927,0.004616838414222002,0.12240418046712875,0.7154746651649475,-0.3833416998386383,3.4801993370056152,-0.009732944890856743,1.7841085195541382,0.9680854678153992,0.23557278513908386,-1.2187771797180176,0.8291090130805969,-0.5305071473121643,-4.042560577392578,-1.4408689737319946,-0.7016687393188477,0.7965266108512878,0.10045469552278519,-0.28041762113571167,-0.8403586745262146,1.043006420135498,-0.7221431732177734,1.2819123268127441,0.8326731324195862,2.0736711025238037,1.154359221458435,0.5056142210960388,-0.3985390365123749,-2.594881534576416,0.041450049728155136,0.7337223291397095,0.06425546109676361,0.07496801018714905,-0.006291836500167847,-0.19686195254325867,2.341317653656006,-0.14207394421100616,-0.08895216137170792,2.460869073867798,0.2680050730705261,-0.33431705832481384,1.754164457321167,0.710568368434906,-1.872219204902649,1.6114648580551147,0.983685314655304,-1.2207655906677246,-0.30417609214782715,0.6692728996276855,-1.0100598335266113,-0.6315864324569702,-0.8150455951690674,-2.0566351413726807,0.7318505048751831,0.6651881337165833,-1.773608922958374,-0.7625414133071899,-0.47526273131370544,-1.7401012182235718,-1.5538954734802246,-0.007157077547162771,-2.6367483139038086,-0.16210819780826569,-0.19235078990459442,2.019609212875366,1.922451376914978,2.2808096408843994,-2.6218056678771973,2.6900792121887207,0.802250862121582,0.9173678159713745,1.0704470872879028,0.5633338093757629,0.8737184405326843,-3.9813480377197266,1.4066373109817505,0.9675347805023193,0.4923122525215149,0.7349987626075745,-1.3298907279968262,0.7762720584869385,3.7111568450927734,-2.211094379425049,-0.7501780986785889,3.8525800704956055,0.7365564107894897,0.49149367213249207,2.226987361907959,1.118796944618225,-0.9426047801971436,1.772433876991272,-0.31078606843948364,-1.8925615549087524,-0.4905911982059479,0.5575252175331116,-1.531660556793213,-0.7376049757003784,-0.5656612515449524,-0.476999431848526,-0.17944903671741486,0.2557145357131958,-0.7838582992553711,0.20811991393566132,0.07290259748697281,-3.131873846054077,-1.3647327423095703,0.931678831577301,-0.9134130477905273,-2.3029723167419434,-2.3917605876922607,1.3307594060897827,2.2565665245056152,-0.20550860464572906,-3.7523159980773926,3.1401991844177246,1.50174880027771,-0.24625098705291748,3.319018602371216,-0.2810336649417877,-1.703703761100769,0.6853201389312744,-0.14842712879180908,1.4883822202682495,0.34840142726898193,3.6376640796661377,-0.04329865425825119,-1.5941596031188965,-1.60426664352417,0.5729483962059021,-2.95786190032959,-0.6240209341049194,1.651595115661621,1.3459759950637817,3.3916547298431396,-0.9015344977378845,-1.805234432220459,1.7567145824432373,3.02812123298645,1.2632791996002197,-1.3105672597885132,-0.216812402009964,-1.7308905124664307,-1.3461694717407227,-2.502174139022827,-3.4019553661346436,0.1319124698638916,-1.7513965368270874,-3.401350736618042,1.3920828104019165,-1.5812283754348755,0.9002978205680847,2.1978790760040283,0.9256848096847534,-0.6689626574516296,-0.6617817282676697,-0.16567884385585785,1.2168779373168945,1.259771466255188,1.1569068431854248,0.6353958249092102,-0.18998105823993683,0.7188946604728699,0.5530264377593994,-1.3029729127883911,0.2613363564014435,2.099716901779175,0.21387304365634918,-0.5966131091117859,-0.45968854427337646,-0.5007051825523376,0.14187929034233093,0.743945837020874,-0.8788192272186279,0.7465234994888306,-0.6223915815353394,-0.6035717725753784,-0.705305814743042,-0.6911885738372803,-0.07543813437223434,0.2170359492301941,-1.2065470218658447,0.489441841840744,-0.8892720937728882,0.3621531128883362,0.8881505727767944,0.2957679033279419,-1.2445709705352783,-0.1555071473121643,-0.7810458540916443,-0.6400039196014404,1.4539433717727661,-0.9438155889511108,-0.5250011682510376,-0.07561711966991425,0.7490381598472595,1.2371941804885864,1.2624160051345825,0.5349759459495544,0.6087213754653931,0.18170084059238434,1.4828435182571411,-0.9408924579620361,-1.4957319498062134,0.43277913331985474,-1.3946737051010132,0.7172942161560059,-0.22460803389549255,0.8786543607711792,-0.9255703091621399,-0.9996100664138794,-0.5066706538200378,-1.2531993389129639,-0.9009714722633362,0.5402787327766418,0.9055888056755066,-1.1942400932312012,-2.878389596939087,0.11650413274765015,1.7074319124221802,1.4374295473098755,-0.9148375988006592,2.452666759490967,0.4873460829257965,-1.0840977430343628,-2.5742273330688477,-0.6188216209411621,0.4473464787006378,0.4778856635093689,-0.6791232824325562,-0.6396754384040833,-0.13684219121932983,1.1342130899429321,-0.534010112285614,0.5287538766860962,1.7135106325149536,-0.9051904678344727,0.6380377411842346,-0.7374186515808105,1.8640410900115967,1.4975807666778564,0.8477369546890259,0.6296638250350952,-0.06505356729030609,-0.8661421537399292,-0.6227362155914307,0.7940067648887634,0.016804076731204987,-1.3840378522872925,-0.7659549713134766,0.34500548243522644,-1.176279067993164,0.015605163760483265,-0.3996289074420929,-0.5782121419906616,-0.7273268103599548,-0.05503377690911293,0.8650949001312256,-0.22131295502185822,1.2591090202331543,-3.240386724472046,1.140056848526001,-0.6512042880058289,-0.8774067759513855,0.1342272013425827,1.3803690671920776,-2.098752021789551,2.9863500595092773,0.8917262554168701,-1.3574931621551514,0.5489316582679749,-3.196531295776367,-1.0355018377304077,-3.601839065551758,0.3062122166156769,-4.001460552215576,-2.097080945968628,0.21398860216140747,0.5516233444213867,-1.3334523439407349,0.5582177042961121,-1.0453457832336426,-2.072552442550659,2.8448097705841064,-2.97184419631958,0.3161066472530365,-0.6638108491897583,0.9009631872177124,1.6062959432601929,1.8154596090316772,-0.4098873436450958,-3.605309247970581,0.945044219493866,0.499573290348053,-0.8264634609222412,-3.037607192993164,-4.304157733917236,0.19725769758224487,0.6949976682662964,-0.6549614667892456,-0.08626219630241394,-1.9000250101089478,-1.1127961874008179,3.703610897064209,1.747401475906372,0.011759713292121887,1.0896114110946655,-0.24059374630451202,2.0089590549468994,3.4528391361236572,-0.374226450920105,-1.9198837280273438,0.5507217049598694,-1.9304873943328857,-1.5125384330749512,-0.416601300239563,1.5869154930114746,2.695246458053589,1.5452532768249512,0.699191153049469,-1.536547303199768,3.0251522064208984,2.053039789199829,-0.6699874997138977,-2.08766508102417,1.2579245567321777,-1.5793242454528809,-1.095924973487854,-1.7034796476364136,-1.4557303190231323,2.2706003189086914,-2.790431022644043,-2.109882354736328,-1.347123622894287,-1.7601606845855713,-0.2404259592294693,3.1283817291259766,1.06214439868927,-0.7005850672721863,-1.3604120016098022,2.021364688873291,1.3935436010360718,2.0860788822174072,2.0742721557617188,-0.07380624115467072,-0.17515318095684052,1.8013592958450317,0.9782863855361938,0.7512226104736328,-1.5165568590164185,1.40015709400177,-0.70040363073349,-0.8581010103225708,0.2063950002193451,-1.2508089542388916,2.1725521087646484,1.419307827949524,-1.3454999923706055,-0.7745886445045471,1.285204291343689,-0.7285538911819458,0.9249176383018494,-0.5982552766799927,-1.9252467155456543,-0.38733330368995667,2.324497938156128,0.5905383825302124,-1.138812780380249,0.7298810482025146,-0.706400454044342,0.2450932115316391,-0.4226081967353821,1.773297905921936,-1.8100430965423584,2.5951082706451416,-1.9372409582138062,0.7249568104743958,1.7849472761154175,1.48015296459198,-1.424903154373169,-0.03210347890853882,-2.3608815670013428,-3.9592225551605225,-0.3629770576953888,-2.3603334426879883,1.2921900749206543,0.6240502595901489,-2.3123514652252197,-1.1048260927200317,1.681242823600769,-2.2323055267333984,0.608376145362854,-0.050579752773046494,1.5078551769256592,1.3372890949249268,2.412306308746338,0.7707608342170715,-1.5189104080200195,0.26303738355636597,0.8075050115585327,0.8653791546821594,1.5543460845947266,-0.8246695399284363,-1.28370201587677,2.3784172534942627,-1.5418007373809814,-1.0294188261032104,1.0533068180084229,0.6887770295143127,1.0543984174728394,1.043971300125122,1.0002589225769043,-1.496333122253418,1.1860721111297607,0.8877225518226624,-1.685531497001648,-0.7009011507034302,0.8817359209060669,-1.0012857913970947,-0.6404758095741272,0.5280809998512268,-0.8186272978782654,1.0580675601959229,-0.7177607417106628,-1.2860493659973145,-1.5638912916183472,-0.9994906187057495,-0.941246509552002,-0.7895479202270508,0.9209998846054077,-1.5980241298675537,-0.7013238668441772,-0.11923860758543015,1.0567387342453003,1.4562932252883911,1.0069955587387085,-1.1636621952056885,1.2087267637252808,1.1598085165023804,0.751693844795227,1.0757131576538086,-0.9660190343856812,-7.4981584548950195,-1.0711246728897095,-5.572159290313721,8.684954643249512,-2.210925579071045,1.5017848014831543,4.706112384796143,2.6075775623321533,-0.272636353969574,5.651479721069336,3.505479097366333,0.7078834772109985,-1.9255282878875732,-1.5726698637008667,-1.2754491567611694,1.722730278968811,4.883011341094971,2.161400556564331,-1.4881983995437622,-1.2488456964492798,2.4883296489715576,2.487595796585083,2.6375043392181396,4.172157287597656,1.8928741216659546,-2.865065097808838,3.9888267517089844,2.873239517211914,3.575474739074707,-1.0894891023635864,2.143829107284546,-0.26395872235298157,-2.5266754627227783,-3.7549097537994385,-1.663454532623291,2.8957297801971436,-1.562780499458313,-0.5984629988670349,-5.406013011932373,1.0509544610977173,-0.49335557222366333,0.23903556168079376,-2.358262538909912,2.206650733947754,-0.4166792631149292,5.077428340911865,-1.215101718902588,-0.7535111308097839,-0.8421867489814758,2.6286747455596924,-1.9786574840545654,-2.621020555496216,1.5842829942703247,0.21759264171123505,0.03635839372873306,-0.6333746910095215,1.9696372747421265,0.44834429025650024,-1.1290968656539917,-2.918079376220703,-0.05093083530664444,-0.6795879602432251,-0.31175872683525085,0.08643320947885513,0.0888097807765007,0.9005696773529053,1.1780121326446533,-0.6215785145759583,0.6747363209724426,-0.10043725371360779,0.2781396508216858,0.08482520282268524,-0.1315678209066391,1.3763352632522583,0.9838538765907288,1.0071343183517456,1.0243406295776367,-1.0481699705123901,-1.2028172016143799,0.0799451619386673,-0.020436713472008705,1.669073462486267,-4.127751350402832,0.39973369240760803,0.5260735154151917,-0.4525739848613739,-1.4118815660476685,0.034758467227220535,-0.0780530497431755,0.21968631446361542,0.41531312465667725,1.7186813354492188,-0.12384581565856934,-0.8435834050178528,-0.21493566036224365,-1.2943145036697388,0.43661272525787354,-1.6754398345947266,-0.6770908832550049,0.8354759812355042,-1.272417426109314,-0.5950214862823486,1.6867284774780273,0.868625819683075,0.8028689622879028,-1.77303946018219,1.0196008682250977,0.9059616327285767,-0.6133655309677124,-0.2865351438522339,-1.6201509237289429,-0.685391902923584,-0.03276576101779938,0.2304803878068924,-1.221153736114502,0.410347580909729,1.1368244886398315,0.6957308650016785,0.40075960755348206,1.7332541942596436,-1.1312452554702759,-0.575914740562439,-0.0970800369977951,-0.1889672577381134,-0.19004662334918976,-0.8547597527503967,0.6697753667831421,-0.449501097202301,-0.11860580742359161,-0.6123128533363342,0.6917266249656677,-0.8883101344108582,0.18847143650054932,0.8150336742401123,-0.020932340994477272,-0.17308737337589264,0.9628525376319885,0.5021345615386963,0.22704383730888367,-2.305325746536255,0.7978397011756897,-0.5207505226135254,0.5811578631401062,1.1559699773788452,-0.6224471926689148,-0.8285934329032898,1.7584844827651978,-1.057607889175415,-1.3226739168167114,2.0201704502105713,0.9862951636314392,0.8726608157157898,1.2770140171051025,1.6217377185821533,-1.3609572649002075,1.654237985610962,1.200868844985962,-1.8335672616958618,-0.7052323818206787,1.90744149684906,-1.0232561826705933,-0.8512226939201355,1.490054965019226,-2.532069683074951,1.936477780342102,-0.8812544345855713,-1.0595357418060303,-1.8098266124725342,-0.9464029669761658,-1.8155546188354492,-2.6605265140533447,1.0958056449890137,-2.527055025100708,-0.9092409014701843,0.6781266331672668,2.009532928466797,1.225089430809021,2.395202159881592,-2.1386280059814453,2.1845297813415527,0.8915278911590576,2.0151596069335938,1.356047511100769,-0.8032429218292236,1.5143370628356934,-2.5576534271240234,1.795807123184204,-2.7121853828430176,3.9753611087799072,0.1569618433713913,-2.5551559925079346,-0.3086715340614319,1.8269165754318237,0.5564078092575073,0.7081509232521057,2.245706558227539,-0.09369397908449173,0.35499054193496704,0.3839723467826843,1.7695866823196411,2.041752815246582,0.27171915769577026,0.3214324116706848,-2.70532488822937,-3.275388479232788,1.7333672046661377,-0.5899202823638916,-2.356701612472534,3.38065242767334,-0.6516071557998657,1.3754990100860596,0.4391550123691559,0.5707858204841614,-2.0624234676361084,-1.403928279876709,-3.054746389389038,0.24523338675498962,0.563060462474823,-0.9499247670173645,-1.2453207969665527,4.235002040863037,0.43285703659057617,0.1535562425851822,2.243009567260742,-3.7460832595825195,2.6415350437164307,2.26652455329895,1.849815845489502,2.792274236679077,0.6368250846862793,0.3685603439807892,-2.0799918174743652,0.6443090438842773,0.3633207380771637,0.520918607711792,0.9047017097473145,-0.7713780999183655,-0.9624084830284119,1.273982048034668,-1.1193642616271973,-0.8327944278717041,2.0228137969970703,0.7016658186912537,-0.16354282200336456,0.9807797074317932,1.243833065032959,-0.8693554401397705,1.0142676830291748,1.0432738065719604,-1.4351599216461182,-0.8307348489761353,0.7882025241851807,-0.9428642988204956,-1.105117917060852,-0.9385985732078552,-1.7726083993911743,1.2504589557647705,-0.2288448065519333,-1.1013617515563965,-1.2227122783660889,-1.082213044166565,-1.75594162940979,-1.6197444200515747,1.0826987028121948,-2.014003038406372,-0.5130784511566162,0.1245654746890068,1.4034301042556763,1.4756656885147095,2.2999165058135986,-1.9974086284637451,2.277902841567993,0.996834397315979,1.5386444330215454,1.5217646360397339,-0.4099014699459076,2.0793840885162354,-0.8589971661567688,1.6184613704681396,-1.7019320726394653,1.6636165380477905,1.2554128170013428,-1.5002942085266113,-1.4469716548919678,1.231033205986023,-1.0327287912368774,-0.8197241425514221,0.8699102401733398,0.8219440579414368,1.905515432357788,-0.06263827532529831,2.5799293518066406,-0.3676529824733734,1.1908307075500488,0.18897928297519684,-2.2149109840393066,-1.3155975341796875,1.9624336957931519,-0.17820164561271667,-0.8243828415870667,1.0964865684509277,-0.5771524906158447,2.647674798965454,-1.3183624744415283,0.0563570037484169,-3.224616765975952,-1.3271347284317017,-1.6775213479995728,1.6789590120315552,0.8984039425849915,-0.6404442191123962,-0.9548890590667725,1.8344833850860596,0.6518630981445312,0.6519905924797058,1.1247650384902954,-1.0645177364349365,0.6577372550964355,0.8216980695724487,1.8017594814300537,2.2077715396881104,-1.6436973810195923,0.8658197522163391,-1.4963845014572144,1.5840736627578735,-1.4963306188583374,3.361144781112671,-0.8440513014793396,-0.5038498044013977,-0.5688783526420593,1.405929446220398,-0.3846703767776489,1.213317632675171,1.1667168140411377,1.0538132190704346,0.9543468952178955,1.1517090797424316,-0.01378154568374157,-0.615557849407196,0.8313500285148621,-0.07703252136707306,-0.8737935423851013,-2.5260679721832275,0.8252288699150085,-1.5398836135864258,-1.0791784524917603,2.1162171363830566,0.009637960232794285,1.3462990522384644,1.016340970993042,0.6828228831291199,-1.1403839588165283,-1.2125449180603027,-0.6839887499809265,-0.4804307818412781,0.8529077768325806,-0.9384336471557617,-1.1290191411972046,2.133410930633545,0.6746661067008972,1.1618419885635376,1.0057883262634277,-1.272327184677124,0.33868637681007385,1.8994148969650269,1.5272639989852905,0.6708846092224121,0.6526176929473877,-2.1783175468444824,1.1110652685165405,-3.684875249862671,0.5401036739349365,-5.25506067276001,-8.178512573242188,4.686223030090332,9.95248031616211,-4.322429180145264,8.428062438964844,7.645500659942627,1.7697319984436035,-4.13275146484375,-7.3452887535095215,-7.027698993682861,3.204481601715088,6.848268985748291,-4.780398845672607,-9.36050033569336,0.45517852902412415,5.601890563964844,-4.626810073852539,5.63478946685791,4.873591899871826,2.278630495071411,4.712549209594727,-2.9538509845733643,9.16565990447998,9.469256401062012,3.6578257083892822,6.826023101806641,-3.5485494136810303,-4.426859378814697,-8.441523551940918,2.3663201332092285,5.5806684494018555,-5.6221489906311035,-4.639019966125488,-8.852913856506348,-5.466269016265869,-2.7631912231445312,-2.218799352645874,-4.869956970214844,-1.3650131225585938,0.7376389503479004,9.6127347946167,-2.8117189407348633,2.6164262294769287,-2.3746607303619385,1.2195720672607422,-1.2454967498779297,-0.932251513004303,1.9703823328018188,2.2258317470550537,-1.6012262105941772,1.8931783437728882,1.0490154027938843,-3.625932216644287,-1.8438093662261963,-1.6342506408691406,-2.4970967769622803,-3.349532127380371,2.7747297286987305,-2.879019260406494,-1.9304794073104858,0.8685823082923889,0.9385367035865784,-2.966275215148926,1.6170085668563843,2.0056376457214355,1.195978045463562,1.6955583095550537,-3.1470086574554443,1.6421082019805908,2.595357656478882,2.571392774581909,2.2998173236846924,2.969550848007202,-1.8099870681762695,-2.177443504333496,2.503669261932373,1.9289650917053223,-0.8974469900131226,-2.7812538146972656,-2.697434186935425,-2.071403741836548,3.2242419719696045,-2.9442174434661865,-1.380402684211731,-4.119185447692871,-3.3830926418304443,2.204288959503174,7.8777642250061035,-7.742022514343262,1.1162731647491455,-8.650102615356445,0.12763851881027222,0.3121486306190491,-2.247356414794922,-0.7030205726623535,8.073051452636719,-0.9497358202934265,-3.0755980014801025,8.14443302154541,0.1300192028284073,2.585209846496582,-0.05392643064260483,8.282288551330566,-0.27566954493522644,1.7707536220550537,0.5620136857032776,-8.198848724365234,0.18714997172355652,7.3470377922058105,0.0420016311109066,-1.5559247732162476,1.3991338014602661,-4.886750221252441,2.7872838973999023,-0.9081022143363953,0.1307663470506668,-8.490609169006348,-0.17832635343074799,-8.419329643249512,0.018379611894488335,2.997021198272705,-6.763155460357666,-0.448845237493515,0.28839102387428284,7.387901306152344,0.4113454818725586,0.8003705143928528,-8.06098747253418,7.977817058563232,0.5444485545158386,5.115734100341797,8.488973617553711,-7.12787389755249,3.378678321838379,2.487504482269287,-0.7737737894058228,-2.412844181060791,0.4499562084674835,8.461596488952637,0.35650375485420227,-3.509809732437134,-0.4955443739891052,-0.9531262516975403,-9.1769437789917,-1.3794689178466797,1.762039303779602,5.483424663543701,5.420654296875,-0.625339686870575,-1.4001857042312622,2.3986499309539795,8.20960521697998,1.1885931491851807,-0.028819488361477852,0.4422467052936554,-1.7817740440368652,1.147068977355957,-3.696079969406128,-0.8857226371765137,0.666643500328064,-7.6556315422058105,-4.838249683380127,0.33433830738067627,-0.3451562523841858,1.9491291046142578,6.879269123077393,4.280405521392822,-0.5550442934036255,0.34837841987609863,0.053974688053131104,1.2082103490829468,2.525113821029663,-1.6608054637908936,1.904821753501892,-0.42550182342529297,-2.6595258712768555,0.6912198066711426,-1.326831340789795,-4.894599437713623,0.9074562191963196,-3.0187747478485107,-0.573926568031311,0.38107991218566895,-1.973557710647583,1.1726949214935303,0.5603774785995483,1.8499782085418701,2.1411499977111816,0.21346639096736908,-1.176151156425476,2.6307060718536377,-0.7892661690711975,0.3736642301082611,-1.1817320585250854,3.9781436920166016,-0.012051114812493324,2.189868211746216,-0.3781375288963318,-4.2258453369140625,1.5100980997085571,5.141910076141357,1.1176764965057373,3.2441959381103516,2.877580165863037,-3.226624011993408,1.4929065704345703,0.6241451501846313,0.2851179838180542,-4.724705219268799,0.20702238380908966,-3.804448366165161,3.744579792022705,0.5546668767929077,-3.510986804962158,0.00590760912746191,-1.5566083192825317,4.12540864944458,-0.3077496588230133,1.4940587282180786,-3.1538379192352295,2.864387035369873,-2.2510900497436523,1.7227858304977417,4.04130744934082,-2.8557982444763184,4.153347492218018,-3.6763763427734375,3.861273765563965,-2.936187267303467,4.031775951385498,4.46904993057251,-3.9134223461151123,-3.82395601272583,3.636972427368164,-3.667619228363037,-3.9657340049743652,3.70352840423584,3.8109917640686035,4.856571674346924,3.641874313354492,4.393631935119629,-3.8896312713623047,4.502835750579834,3.628234624862671,-4.573473930358887,-3.9815218448638916,4.555229187011719,-3.7354443073272705,-3.7983644008636475,6.655381679534912,-4.592203140258789,4.478245258331299,-4.059024333953857,-3.7581210136413574,-5.456620693206787,-3.9178788661956787,-4.116565227508545,5.031503200531006,3.764925956726074,-4.16170597076416,-3.867345094680786,4.470637798309326,4.019089221954346,3.670597553253174,6.343300819396973,-3.980232000350952,3.9004342555999756,3.946672201156616,4.283601760864258,4.3195013999938965,-3.8204615116119385,0.07720473408699036,-1.651998519897461,0.6785798072814941,0.6180724501609802,0.8110511302947998,0.7504820227622986,-0.5747628211975098,-0.7700955867767334,1.1927467584609985,-0.7071486115455627,-0.8900190591812134,1.8599859476089478,0.657875657081604,0.4120420217514038,0.8641756772994995,2.1695144176483154,-0.8054742217063904,1.6379634141921997,0.9088189005851746,-1.4828027486801147,-0.7466360926628113,1.2920565605163574,-0.8653727769851685,-0.821603000164032,0.5788171291351318,-2.2796881198883057,2.011380434036255,-0.6554976105690002,-0.5874500870704651,-1.8938791751861572,-1.0270971059799194,-1.8512908220291138,-2.020108699798584,0.9118192195892334,-2.0108141899108887,-0.7223734855651855,0.7286033630371094,1.6519417762756348,0.9156332612037659,1.7866803407669067,-1.7485970258712769,1.5693976879119873,0.8017776608467102,2.6312577724456787,1.3357675075531006,-0.6374983191490173,-0.38495758175849915,-3.7455244064331055,2.2395873069763184,7.433444499969482,1.3545987606048584,0.6960936784744263,-1.9601120948791504,-1.7209746837615967,5.036099910736084,-2.4261910915374756,-1.244030475616455,3.7086076736450195,2.8467917442321777,-1.4949887990951538,4.40755558013916,0.6753552556037903,-4.039913177490234,4.878653049468994,3.8820180892944336,-1.5469775199890137,-2.5646133422851562,2.0458972454071045,-3.6009647846221924,-2.5800912380218506,0.20375169813632965,-6.472079753875732,2.23089337348938,-0.945761501789093,-3.884474277496338,-1.7413725852966309,-3.174089193344116,-4.330018043518066,-2.9878251552581787,3.2148332595825195,-5.278419494628906,-3.2913544178009033,1.0769202709197998,5.407068729400635,3.9610626697540283,7.165202617645264,-4.768906116485596,4.7305097579956055,3.251485824584961,2.435392379760742,1.1056911945343018,-0.5984637141227722,6.821127414703369,3.9261605739593506,-3.397071361541748,-0.7232708930969238,0.08085951209068298,-5.119600296020508,0.5050563216209412,3.09214186668396,-0.3292715549468994,2.2682504653930664,5.129877090454102,-2.0944738388061523,-2.311723232269287,-0.8167904019355774,-4.071871757507324,-2.2702667713165283,5.178397178649902,-0.70673006772995,0.5969277024269104,0.31993818283081055,3.6862528324127197,0.8435945510864258,2.602656364440918,6.553300380706787,0.786686897277832,5.573730945587158,-0.9990742206573486,-0.3989998996257782,4.039684772491455,-0.5487083792686462,3.5978755950927734,0.11574294418096542,2.792048692703247,0.8368339538574219,5.51008415222168,2.0018556118011475,-1.3784823417663574,-1.6167724132537842,-1.2269196510314941,-2.2377676963806152,0.857628345489502,-2.9756102561950684,-4.809575080871582,-2.999068021774292,1.5955156087875366,-0.06279676407575607,2.017774820327759,2.7906534671783447,-0.9023444056510925,-2.3959543704986572,0.6374772191047668,-0.5986465215682983,-3.2979812622070312,-0.13569375872612,-3.105238676071167,1.0607587099075317,0.23724879324436188,-1.6366468667984009,1.0056219100952148,0.8774694204330444,1.5799427032470703,-4.863053321838379,-0.8017865419387817,-2.8400793075561523,0.819244384765625,4.238997459411621,-0.20480138063430786,-3.65575909614563,0.5127038955688477,0.29243147373199463,-1.9983960390090942,6.0918965339660645,-5.6543474197387695,-1.311607003211975,-4.843594074249268,4.537868022918701,-0.6053349375724792,0.7050244808197021,3.7245423793792725,0.314371794462204,7.817996501922607,-0.359956294298172,-0.30995407700538635,-3.0154244899749756,-0.008583336137235165,-2.8999176025390625,1.2078038454055786,-3.6611340045928955,0.4458487033843994,-3.562224864959717,-3.547994375228882,0.600405216217041,1.2195323705673218,-4.965631484985352,-0.9230630397796631,3.0004630088806152,-0.467170387506485,-0.9068995118141174,-1.952709436416626,-0.9085726737976074,5.109779357910156,-0.7961446642875671,0.7627135515213013,4.755969524383545,-0.3342587351799011,-0.5637088418006897,0.23110510408878326,4.485569000244141,-0.07295360416173935,3.6178524494171143,-0.23887187242507935,-5.790484428405762,0.592990517616272,4.903971195220947,-0.6989279389381409,-2.8804545402526855,3.5430550575256348,-4.5626325607299805,3.043438673019409,1.6448882818222046,-0.7465118169784546,-4.2497477531433105,0.3668292164802551,-4.957691192626953,-4.554368495941162,-0.48183193802833557,-6.173771381378174,-0.7369651794433594,-0.7150647044181824,5.0422892570495605,0.5621775984764099,5.320603370666504,-4.496462821960449,5.149071216583252,0.9473729133605957,4.487147331237793,5.314497947692871,-1.6979950666427612,-3.0219082832336426,-2.7833688259124756,-0.8187447786331177,2.7663190364837646,0.981819748878479,1.518358826637268,1.009782075881958,-1.7597684860229492,1.998056411743164,0.13275106251239777,-0.7171708345413208,1.9931814670562744,-0.31888633966445923,0.6274612545967102,1.5559171438217163,1.3457584381103516,-0.3705393671989441,2.823866605758667,1.854659914970398,-2.2303266525268555,-1.6294465065002441,2.8001911640167236,-0.4213457703590393,-0.0710538998246193,1.6975553035736084,-4.957180976867676,3.6502513885498047,0.078538678586483,-0.9201462864875793,-2.6468770503997803,-2.108813762664795,-2.4511518478393555,-2.9532670974731445,1.4620648622512817,-4.887507438659668,0.03929976001381874,2.3725521564483643,3.9879841804504395,1.323989748954773,5.152633190155029,-3.376193046569824,2.7022368907928467,0.7717252969741821,3.971372127532959,1.2970422506332397,-0.020547974854707718,-3.660083770751953,3.198214530944824,-5.115630149841309,5.675425052642822,-1.9674533605575562,1.538661241531372,3.622472047805786,2.5311508178710938,-4.395971298217773,2.712949752807617,-0.7307514548301697,-2.7418272495269775,-0.3674682676792145,-1.5802987813949585,-0.48043209314346313,-6.714095115661621,1.6454060077667236,-2.8940300941467285,-1.7137728929519653,0.43097102642059326,0.46497488021850586,-4.4406046867370605,0.13410060107707977,3.0079071521759033,-5.595534801483154,0.7532225847244263,-5.596292018890381,-0.004616098012775183,-0.6631466150283813,2.128246307373047,2.8631789684295654,5.5887603759765625,-2.9680299758911133,-4.123015403747559,3.1574699878692627,1.8185406923294067,-1.9397231340408325,-1.736080288887024,-3.42510986328125,-1.2160308361053467,3.674060583114624,-1.7987819910049438,-2.263232946395874,-5.786489963531494,-5.425133228302002,2.9395945072174072,7.899298191070557,-0.2572924494743347,7.495389461517334,0.33330264687538147,7.885685920715332,7.0116987228393555,-7.43159294128418,-7.248355388641357,0.3650640845298767,-5.926398754119873,-6.053913116455078,0.35420241951942444,6.337984561920166,7.7891387939453125,0.6275528073310852,7.274662971496582,-2.1486008167266846,1.8251981735229492,1.321508526802063,-6.386870384216309,-7.231077671051025,6.373807907104492,-3.3114113807678223,-7.076847076416016,7.436433792114258,-0.35479968786239624,7.144650936126709,-7.546260356903076,-0.7279907464981079,-7.578234672546387,-6.179144859313965,-2.840667963027954,-0.16648824512958527,5.520273685455322,-1.3413821458816528,-6.221457004547119,7.842360973358154,0.44607076048851013,0.9979944229125977,1.8354575634002686,-0.5869543552398682,0.2077549248933792,6.432090759277344,6.225305080413818,6.303360939025879,-7.479994773864746,1.4929736852645874,-1.0588624477386475,1.1481114625930786,-2.2723817825317383,1.1957433223724365,1.6725729703903198,-1.2787582874298096,-1.4400784969329834,1.150115966796875,-1.2057719230651855,-1.3761247396469116,1.0981231927871704,1.132859230041504,1.8348159790039062,0.9725807905197144,1.7004718780517578,-1.1416491270065308,1.634053349494934,1.277944803237915,-1.7048488855361938,-1.1715407371520996,1.6387324333190918,-1.0815662145614624,-1.1570825576782227,3.6196024417877197,-1.6782764196395874,1.6212953329086304,-1.4334744215011597,-1.0864681005477905,-2.0747358798980713,-1.2462519407272339,-1.3752117156982422,1.9797213077545166,1.355027437210083,-1.6101269721984863,-1.2243033647537231,1.7849037647247314,1.430029273033142,1.0567723512649536,1.8014835119247437,-1.2359318733215332,1.074550986289978,1.2204113006591797,1.5071595907211304,1.4936180114746094,-1.354636549949646,1.4453871250152588,9.234757423400879,-1.9059821367263794,-1.7003493309020996,-1.227224349975586,0.7284120321273804,1.7229552268981934,2.180152177810669,-7.946805477142334,4.945622444152832,1.760431170463562,-8.219582557678223,-0.8139525651931763,-0.28861668705940247,-1.936083436012268,-6.339219570159912,-0.49334612488746643,-2.0620973110198975,-1.6462663412094116,7.110931396484375,0.39572030305862427,-4.517868518829346,5.8958916664123535,3.7782845497131348,-5.713357925415039,3.6723976135253906,-3.690526008605957,-1.855187177658081,-1.0444505214691162,5.540888786315918,0.5087817907333374,8.12047290802002,6.498688697814941,-4.133078575134277,8.323036193847656,1.1420140266418457,0.292767733335495,-2.5445396900177,-4.469408988952637,-5.386475563049316,7.912177562713623,-9.835310935974121,-2.6808066368103027,-6.659827709197998,-7.918170928955078,1.591306209564209,6.490656852722168,4.478883743286133,5.18281364440918,-11.839919090270996,5.18791389465332,-2.6248867511749268,-7.800391674041748,4.047643661499023,-3.8205864429473877,2.0137720108032227,4.196769714355469,2.244356393814087,5.525414943695068,-2.8629136085510254,-1.5437908172607422,1.4154980182647705,1.9180381298065186,-5.699611186981201,-6.66959285736084,-1.7756919860839844,-2.850611686706543,-7.358914375305176,-5.8321685791015625,-5.065662384033203,-1.3020998239517212,9.20722484588623,-9.010934829711914,4.139571666717529,1.6495931148529053,0.30488404631614685,1.5095025300979614,3.704841136932373,2.831728935241699,-4.064526081085205,7.247924327850342,-1.9064112901687622,9.95306396484375,-6.239724159240723,-3.3822250366210938,-10.196122169494629,4.374751567840576,-4.151249885559082,5.9934916496276855,-5.329624176025391,-0.7383298277854919,3.2270233631134033,-0.4045448303222656,-8.750852584838867,2.2996647357940674,-2.100524663925171,3.309701919555664,-3.300020694732666,-2.739107370376587,4.071406364440918,7.321873188018799,2.5424766540527344,5.127578258514404,6.162903308868408,0.511501669883728,-4.1825761795043945,1.4861106872558594,-1.5553761720657349,1.6004128456115723,-2.0886850357055664,-3.1228277683258057,0.34376388788223267,-3.5239791870117188,-0.9698999524116516,-1.872519612312317,-5.295858860015869,0.9223049283027649,1.3622510433197021,-1.4814082384109497,5.919013500213623,0.4746301472187042,1.9484503269195557,-0.6470277905464172,-2.055182456970215,-1.6093162298202515,2.3756589889526367,1.2435914278030396,-2.0719079971313477,1.9112138748168945,-0.36368653178215027,0.8031691908836365,-1.3777101039886475,-5.626913547515869,6.800228118896484,4.135014533996582,-1.1961133480072021,2.874183177947998,4.859256267547607,-3.8210291862487793,5.512819290161133,-4.022721290588379,4.276468276977539,-4.027151107788086,-3.3936822414398193,4.112019062042236,3.8093442916870117,-5.026036262512207,3.900113344192505,3.6272685527801514,-5.367947101593018,-4.063907623291016,-3.1106998920440674,-4.027535915374756,-5.382083415985107,3.8694398403167725,-3.890615940093994,-3.847264289855957,4.837357044219971,3.9893863201141357,-4.7340779304504395,4.102177143096924,3.870936155319214,1.3069467544555664,-2.697903633117676,-5.342984676361084,3.6025633811950684,3.805079221725464,6.212178707122803,3.98210072517395,1.3308711051940918,-2.342848300933838,-3.8505027294158936,4.68484354019165,4.0233473777771,-4.086636066436768,-4.1063995361328125,-3.8588244915008545,-8.254563331604004,6.097753524780273,-5.143003940582275,-4.008288383483887,-6.12944221496582,-5.849771976470947,3.70540189743042,3.068277597427368,0.9232655763626099,1.0933324098587036,-1.067649483680725,1.1500598192214966,1.448946237564087,-1.454064130783081,-2.1203408241271973,-0.2746698260307312,-0.5964137315750122,-1.8669171333312988,-0.1877852976322174,2.1711065769195557,0.9297316074371338,0.1401829868555069,0.010320528410375118,-1.736430287361145,-0.8368569612503052,0.27358943223953247,0.5740732550621033,-1.6960958242416382,-0.8159218430519104,-0.6864874362945557,-3.3655893802642822,0.03946463018655777,0.42679286003112793,-0.6958665251731873,-2.119927406311035,-1.8122451305389404,0.4372917413711548,-1.0600067377090454,1.1466124057769775,0.40257805585861206,0.4740428924560547,0.2985771596431732,-1.0259966850280762,1.3940593004226685,-0.697920560836792,-0.6578511595726013,-1.0824053287506104,1.049423336982727,-0.4306122958660126,1.9113306999206543,-0.27754926681518555,-0.7731826305389404,-0.9771749377250671,-0.06653844565153122,0.9806891679763794,-1.4377435445785522,2.4712321758270264,-0.3883360028266907,-0.5222429037094116,1.2921606302261353,0.4880846440792084,-0.10813146084547043,0.5032688975334167,-0.183766707777977,-0.22086037695407867,-0.22481268644332886,-1.2339061498641968,-0.038200147449970245,-1.1610623598098755,0.7352223992347717,-0.8428516983985901,0.06654119491577148,0.8681719899177551,0.4788196086883545,-0.6074161529541016,0.7297214269638062,1.0322819948196411,-0.8895320296287537,0.6556617021560669,-1.01321280002594,0.07737968862056732,-0.01763312704861164,1.1478854417800903,0.7847888469696045,0.6550596952438354,0.0488751046359539,-0.3317452669143677,0.9790715575218201,0.8053367733955383,-1.061631202697754,-0.24062828719615936,0.1915140599012375,-0.8324715495109558,0.588854193687439,-0.5696101188659668,-1.2933341264724731,-1.2106455564498901,-0.5769590139389038,0.01590145193040371,0.0349932461977005,-0.015332834795117378,0.0017171212239190936,0.05153524875640869,-0.058066342025995255,-0.0018258698983117938,0.020594919100403786,0.014150947332382202,0.03678577393293381,0.022830374538898468,0.06143759936094284,-0.002254074439406395,-0.03345033898949623,-0.012890390120446682,-0.056682731956243515,0.01947307214140892,-0.043058525770902634,-0.05439157411456108,-0.07673715054988861,0.04380010813474655,0.03969530761241913,-0.008035996928811073,0.057789821177721024,-0.06594843417406082,-0.05822872370481491,-0.07934025675058365,-0.05330076441168785,-0.01877540349960327,0.020240837708115578,-0.058742791414260864,-0.05129174143075943,-0.01738731563091278,0.06983014196157455,-0.06278046220541,0.06780342012643814,0.054629359394311905,0.04572649300098419,0.06460622698068619,0.03246420994400978,0.044815175235271454,-0.03285132721066475,-0.0650453045964241,-0.000009979970855056308,-0.057183556258678436,0.0606054812669754,0.06215361878275871]},"hiddenLayers":[{"inputMatrix":{"rows":20,"columns":46,"weights":[1.2826308012008667,1.822769284248352,-0.2986302077770233,-0.9405319094657898,-0.09384036064147949,1.6309701204299927,0.20579856634140015,-0.8954341411590576,-1.4524376392364502,-0.18133234977722168,-1.3154816627502441,-1.7849072217941284,-0.13145124912261963,1.3883618116378784,-0.1742819994688034,-2.5662825107574463,0.17556005716323853,0.0016446057707071304,0.1549132615327835,1.5280239582061768,-0.36984455585479736,-0.6159629821777344,0.4689124822616577,-0.819998562335968,-0.6375258564949036,0.6385465264320374,-1.2120000123977661,-1.0403530597686768,-0.5597068667411804,0.9218320846557617,0.1299804002046585,1.8147354125976562,1.95333993434906,0.2002791166305542,0.866162121295929,0.554378092288971,0.6913657188415527,-0.7982212901115417,-0.20575366914272308,-0.42367255687713623,1.6543833017349243,-0.6241939067840576,0.6416613459587097,-1.0838043689727783,-0.844977617263794,-0.5953295826911926,-1.453630805015564,0.5936840772628784,-1.153443455696106,0.9421336054801941,-0.4268661439418793,-0.17360025644302368,0.6223980784416199,1.5582993030548096,-1.6750214099884033,0.6181367039680481,0.9409258961677551,-0.3746163845062256,-0.6875324249267578,-0.4681777060031891,-0.3722287118434906,1.1132915019989014,0.11881600320339203,0.10648899525403976,-1.4350913763046265,-0.16099457442760468,0.8712403178215027,0.2424299269914627,0.49374595284461975,2.0394577980041504,-0.12646913528442383,-1.2661160230636597,0.5275245904922485,1.457770586013794,0.5756463408470154,-0.6608960628509521,0.50873863697052,-0.16190189123153687,0.22863560914993286,-1.6318351030349731,-0.07736621052026749,0.32366979122161865,-0.860084593296051,-0.3016536831855774,-1.0994623899459839,0.5832204222679138,0.16320514678955078,-0.17694610357284546,-2.0817794799804688,-0.027827342972159386,0.17640262842178345,1.123170256614685,0.530628502368927,0.7080241441726685,0.5766491889953613,-0.9811113476753235,-0.643362820148468,0.20705947279930115,0.02182474173605442,0.437953919172287,-0.011509783565998077,0.8383255004882812,0.07283516973257065,-0.9840276837348938,-1.1575900316238403,0.1281098872423172,-1.4912781715393066,-1.239115595817566,0.8554210066795349,-1.0499516725540161,-0.6444590091705322,1.049565076828003,0.20665903389453888,-1.4425615072250366,1.394037127494812,-1.937060832977295,0.4497235119342804,1.3167072534561157,-1.7637954950332642,0.05461454018950462,1.0153940916061401,1.3535469770431519,0.24676641821861267,1.0211303234100342,-0.16537463665008545,-0.8319124579429626,1.6382427215576172,0.4820522964000702,-0.16702018678188324,-0.9859680533409119,-1.3160231113433838,-1.1222296953201294,0.8255408406257629,-1.8930535316467285,1.3844709396362305,-1.543199896812439,-0.9309651255607605,0.24802449345588684,-1.7618893384933472,0.8315097093582153,0.02731580100953579,2.271183490753174,-0.7747719883918762,-0.014746843837201595,0.20119597017765045,1.8118395805358887,0.2545609474182129,0.516945481300354,-0.17082615196704865,-1.1052727699279785,0.09400565177202225,1.179362177848816,-0.039008427411317825,-0.2738442122936249,-0.0432933047413826,1.421250581741333,-0.07691614329814911,0.17066432535648346,1.2652876377105713,0.8886057734489441,0.20301760733127594,2.6421163082122803,-0.6250870823860168,-0.522367000579834,-0.13016776740550995,-0.38644418120384216,0.07649651914834976,0.424057275056839,0.53801029920578,0.8777139186859131,0.5992757081985474,-0.42025622725486755,0.683914303779602,-0.37300434708595276,-3.555718183517456,0.9461703300476074,-0.5886135697364807,-0.759791910648346,1.2194886207580566,-1.0230494737625122,-1.8001145124435425,-0.4998486638069153,-0.8047159314155579,-0.10665182024240494,-0.11586905270814896,-1.3580646514892578,-0.3723948299884796,1.5752902030944824,-2.1249024868011475,-0.06814536452293396,1.5367333889007568,0.32886865735054016,1.6307018995285034,-0.6164950728416443,-0.719786524772644,0.3312174677848816,-1.6971572637557983,-2.5029942989349365,-0.2625337839126587,-0.5404371023178101,1.1213828325271606,-0.5312469005584717,-0.0012703010579571128,-0.027475900948047638,0.5560451149940491,-0.2572205662727356,0.5432927012443542,-1.8698070049285889,0.27346694469451904,-0.18513426184654236,-0.7530528903007507,0.1467287391424179,-0.07044751197099686,0.8691216111183167,1.5963311195373535,0.32103413343429565,-2.0620367527008057,0.536864697933197,-0.40771207213401794,1.1716808080673218,-2.9372141361236572,1.2517179250717163,0.5465090274810791,-0.2949485778808594,-0.3361833691596985,0.7212241291999817,0.770932674407959,-0.07880759984254837,-0.2933933436870575,-0.8391608595848083,-1.1337751150131226,-1.3205472230911255,0.02399103157222271,1.4026631116867065,-0.12203951925039291,0.8784490823745728,0.3748805820941925,0.4507908523082733,0.07995960861444473,0.14915475249290466,0.10730790346860886,0.5180928707122803,-0.24839046597480774,1.321197271347046,-0.5379276275634766,0.6406554579734802,-0.17356111109256744,1.6861058473587036,-0.5186629295349121,-1.1910529136657715,-0.12430203706026077,1.210726261138916,0.03444397449493408,-0.44069725275039673,0.764262855052948,-2.237321615219116,1.4032201766967773,0.2125457227230072,0.5735479593276978,-1.4975924491882324,-0.010271206498146057,-0.9168476462364197,-0.30969297885894775,-0.08878327161073685,-2.007599115371704,-0.03830062225461006,-0.27995991706848145,1.6115788221359253,-0.22602397203445435,3.282526969909668,-1.2232674360275269,1.1335786581039429,0.6298724412918091,1.368119716644287,0.9211674332618713,0.5767548084259033,-0.6167911887168884,0.9093958139419556,0.9209480881690979,0.30786755681037903,-0.11554298549890518,1.422903060913086,-0.3335227072238922,-0.1253182291984558,-0.6089972257614136,-0.4203639030456543,-0.5994166135787964,-0.9602359533309937,0.2431640625,1.0645610094070435,0.0922984927892685,0.09968143701553345,-0.27027466893196106,-0.06046546995639801,0.24305830895900726,0.2224789559841156,-0.36464861035346985,-0.47844165563583374,-0.0836573913693428,0.2521180212497711,-0.629946768283844,-0.7560642957687378,-0.8743805289268494,-0.36848151683807373,-0.06353762000799179,0.6559317708015442,-0.4164392650127411,1.0268878936767578,0.11212466657161713,0.21075603365898132,0.4055072069168091,-0.3000955879688263,0.0899236723780632,-0.36272838711738586,0.14388170838356018,-0.26718685030937195,1.2294498682022095,-0.8831406831741333,0.3986274003982544,-0.6371100544929504,-1.2555433511734009,-0.5973818898200989,2.094740867614746,1.7751734256744385,0.8899663686752319,-3.5362024307250977,0.8947863578796387,-0.5309462547302246,-0.49855268001556396,-1.0776816606521606,-0.6411080360412598,-1.0026257038116455,0.38879039883613586,-0.740760326385498,0.29958316683769226,0.9887031316757202,0.4501810073852539,0.6722082495689392,-0.9136294722557068,0.33314934372901917,0.3366033136844635,-0.0013460447080433369,0.044717948883771896,0.3121505379676819,-0.3289107084274292,-0.3362569510936737,1.0266292095184326,1.1261531114578247,0.5393227338790894,-1.1614484786987305,-0.7746036052703857,-0.8271401524543762,-0.5905619263648987,-0.03398146852850914,1.9496458768844604,1.0883938074111938,0.8194579482078552,-0.5345342755317688,1.5008537769317627,-0.7815282940864563,0.7155784368515015,-0.2793092727661133,0.7161093950271606,-1.1386659145355225,0.5487411022186279,-0.007433346007019281,0.5911039710044861,-1.399865984916687,0.8279747366905212,0.842340350151062,-0.39014288783073425,-0.10307285934686661,0.22339190542697906,-1.1152206659317017,0.20790301263332367,-0.2662995755672455,0.6770785450935364,0.13974863290786743,0.13902030885219574,-0.5774045586585999,-0.20599479973316193,-0.7685715556144714,-0.9158527255058289,-0.8238887786865234,-0.06532313674688339,-2.421870231628418,0.1189674437046051,1.158908486366272,0.2519682049751282,-1.3897969722747803,0.395342081785202,-0.313611775636673,-0.2236134111881256,2.2449235916137695,-1.6777817010879517,-0.4366796016693115,-0.3707427382469177,1.0657933950424194,0.47223183512687683,1.0095295906066895,-0.18587352335453033,-0.6101996898651123,1.4975552558898926,0.5793111324310303,0.5797203183174133,-2.3478636741638184,-0.7113929986953735,-1.7988344430923462,1.1381970643997192,-0.71833336353302,-0.28804659843444824,-1.2818596363067627,-0.7741352319717407,-0.5153554677963257,-0.9672896265983582,-0.2672613859176636,-2.0627219676971436,0.06999929994344711,-0.557807445526123,-0.7335387468338013,0.37659451365470886,0.14249278604984283,-1.683255910873413,0.7276498675346375,0.8217087388038635,0.20884539186954498,0.19261060655117035,-3.220083713531494,1.377190351486206,-0.7234079837799072,-0.18755149841308594,-1.7283201217651367,-0.4419129192829132,0.49238792061805725,-0.07004162669181824,-0.5935913324356079,-0.6438949704170227,0.7025600075721741,-0.22216501832008362,1.8753658533096313,-1.0826301574707031,1.012646198272705,-1.154750108718872,1.1371797323226929,-0.0526643805205822,-0.041855569928884506,0.4605884552001953,-1.266485571861267,0.505638599395752,0.2541029155254364,-0.5396361947059631,-1.6228222846984863,0.01045476645231247,-0.255219429731369,-0.27819010615348816,0.18923547863960266,0.7111175656318665,-0.8531014323234558,0.00676726596429944,0.40521037578582764,-0.40064820647239685,0.5317965149879456,-0.04236702248454094,1.2274158000946045,-1.1342289447784424,-0.40716785192489624,1.0473835468292236,-0.17109213769435883,1.0111992359161377,0.1320105940103531,0.3381720781326294,-0.8536354899406433,-1.5144308805465698,-0.09460710734128952,-1.2290433645248413,-1.0793190002441406,1.0292295217514038,-0.774768054485321,0.31884270906448364,0.6111623048782349,1.022974967956543,-0.6972677111625671,1.5606797933578491,-0.8349103927612305,0.5052311420440674,0.5750730037689209,0.3267824053764343,-0.01808715984225273,1.90504789352417,0.4064495265483856,1.409090280532837,1.1256734132766724,-2.0159833431243896,-0.05438033863902092,0.3192930519580841,1.4299646615982056,-1.1604700088500977,-0.2475730925798416,-0.14338506758213043,-0.4595983922481537,1.0360947847366333,-0.4029512405395508,0.05012243241071701,0.11473487317562103,-0.9664726853370667,0.3752703368663788,0.7282572388648987,0.2148360013961792,-0.19546878337860107,-0.19684313237667084,-0.793730616569519,0.4147089421749115,0.2215331792831421,-0.267333447933197,-0.5576425790786743,0.47955217957496643,-0.09545708447694778,-0.35705891251564026,-0.1759873628616333,-0.7016805410385132,-0.7452570796012878,-0.3191116452217102,0.208092600107193,-2.142691135406494,-0.2167351245880127,1.0839996337890625,0.37688153982162476,-2.591909408569336,1.0014088153839111,-0.8223330974578857,-0.4509563446044922,1.182374358177185,-2.6040778160095215,0.456459105014801,0.6964410543441772,1.2417374849319458,0.13818474113941193,-0.2159978151321411,-0.42427539825439453,-0.5797483325004578,0.9156578779220581,0.34355613589286804,-0.1896858662366867,-3.1589202880859375,-0.6262168884277344,-1.4276783466339111,-0.14064405858516693,-0.8130884170532227,-0.17385117709636688,-1.9480204582214355,-0.4230495095252991,0.6712208986282349,1.0626691579818726,1.0147989988327026,-0.8745769262313843,-1.045847773551941,-0.5363682508468628,0.559952974319458,0.04874876141548157,-0.20300808548927307,-1.1337774991989136,-0.02266610600054264,-0.1715208739042282,-0.9075022339820862,0.36857470870018005,0.3741321265697479,0.18000522255897522,-0.4930282533168793,-0.2633001208305359,-1.151367425918579,-0.31488579511642456,0.16494661569595337,0.5920515656471252,-0.3644704818725586,-0.47465193271636963,-0.1389724165201187,0.08945243805646896,2.3215460777282715,-0.8856078386306763,0.03093688376247883,-0.7580243349075317,-0.14566422998905182,0.6628241539001465,1.089917778968811,0.6091418862342834,-0.33476078510284424,1.1236610412597656,0.08313151448965073,-0.3985532820224762,-1.5431145429611206,-0.06984309107065201,-1.3110034465789795,1.0514681339263916,-0.4049232602119446,-0.0005718949250876904,-1.3992745876312256,-0.2711639106273651,-0.09531302005052567,-0.9447188377380371,1.1913563013076782,-0.4819742441177368,0.7922868132591248,-1.9024211168289185,0.09006668627262115,0.9136224389076233,0.27785784006118774,-0.2171107977628708,0.43833041191101074,-0.19521678984165192,-0.8861983418464661,-0.9612588286399841,0.9926637411117554,-0.39181074500083923,-1.3320938348770142,0.41937583684921265,0.6620042324066162,0.43942776322364807,0.9493441581726074,1.2161922454833984,-0.04311311990022659,0.7968228459358215,0.8846034407615662,-0.7295486927032471,-0.31721189618110657,-0.30385929346084595,-0.6002610921859741,0.22230999171733856,0.9985172748565674,0.8855085372924805,0.6529971361160278,0.41646289825439453,-0.20456562936306,0.3864155113697052,0.5016220211982727,-1.2710044384002686,0.7906204462051392,-0.15056639909744263,-0.32035425305366516,1.0449670553207397,-0.6954957842826843,-1.6172245740890503,-0.4998318552970886,-0.9117295742034912,0.06711754202842712,-1.8133258819580078,0.020368466153740883,-1.0768851041793823,1.131316065788269,-0.6307909488677979,1.1383979320526123,1.73834228515625,0.610617458820343,-1.6583094596862793,0.6124503016471863,0.15173831582069397,-0.6238548159599304,-0.8220140337944031,0.6492065787315369,-0.5118421316146851,-0.5555092096328735,0.5406175851821899,0.7130669355392456,-0.7473942041397095,0.26129165291786194,0.20032639801502228,-0.3486127555370331,0.41309890151023865,0.22767077386379242,-0.6406994462013245,-2.1917436122894287,0.07890800386667252,0.41423746943473816,0.5327215194702148,0.20559410750865936,0.4784543216228485,-0.12807804346084595,0.7650337815284729,-0.4212280809879303,-1.0378974676132202,0.6788318157196045,-0.4141053557395935,0.6604139804840088,-0.8292011618614197,1.885007381439209,-0.45404112339019775,-0.10672842711210251,0.10257457941770554,0.485438734292984,0.03045380860567093,0.6990844011306763,1.7334884405136108,0.0746140331029892,0.951420783996582,0.1351616233587265,0.23238445818424225,0.10104119777679443,-0.3670377731323242,-1.397247076034546,1.1390323638916016,-0.9881945252418518,-0.9342443346977234,0.26072993874549866,0.6821358799934387,-0.25294557213783264,0.6594028472900391,-0.27538689970970154,-1.0106301307678223,-0.5143741369247437,1.134560465812683,1.006341576576233,-0.462589293718338,-0.8337069749832153,-0.30575326085090637,-1.043456792831421,-1.3825139999389648,0.8660516142845154,-0.6874803304672241,-1.1419678926467896,-1.0003368854522705,0.9597509503364563,-0.590269923210144,0.26173871755599976,0.8401110172271729,1.2444530725479126,0.06955450773239136,-0.38059931993484497,-0.3965747356414795,-0.47986191511154175,1.2908787727355957,-1.3488566875457764,0.7316189408302307,-0.38388413190841675,0.7763845324516296,-0.3097899854183197,-0.33463501930236816,-0.9971529245376587,1.2831252813339233,0.045938894152641296,-0.11558109521865845,0.08267536759376526,-0.23788875341415405,-1.013355016708374,0.16573120653629303,-0.23276473581790924,0.4058583974838257,0.07375838607549667,0.3161521255970001,0.6282209753990173,-0.058770209550857544,-1.3743324279785156,0.03281938657164574,-1.0865380764007568,0.16866400837898254,-1.9186100959777832,-0.16899986565113068,1.0710148811340332,0.1876371055841446,-1.2847671508789062,-0.038475051522254944,-1.605002999305725,-0.1792881339788437,3.114628791809082,-1.4082527160644531,0.1681862324476242,-0.41160282492637634,1.0333949327468872,0.46876025199890137,-0.05682256072759628,-0.15118569135665894,-0.010351132601499557,0.8333866596221924,0.33392664790153503,-0.005223139654844999,-1.9638110399246216,0.21961182355880737,-1.266343593597412,-0.020410582423210144,0.8215389847755432,0.5055663585662842,-0.8390387296676636,0.4392511248588562,0.29139813780784607,-0.4863069951534271,-0.15882934629917145,-0.6486245393753052,0.3309882581233978,-0.774622917175293,-0.743838369846344,0.6981838941574097,0.6899986863136292,0.4035506248474121,0.4909817576408386,0.6817654371261597,-0.17983925342559814,-0.34691575169563293,-1.5157092809677124,-0.2230767011642456,-1.0984615087509155,1.0827159881591797,-1.5451241731643677,-0.6544367671012878,0.7267448902130127,0.952804684638977,-1.6547311544418335,-0.06242401525378227,0.558190643787384,-0.08434832841157913,1.3118531703948975,-1.2998378276824951,0.7819680571556091,0.7295653223991394,1.074096918106079,0.4005330801010132,0.41576772928237915,-0.32637056708335876,-0.44322025775909424,1.1827627420425415,0.7286191582679749,-0.4220656752586365,-1.907343864440918,0.5385358333587646,-1.840865135192871,0.5227857232093811,0.227322518825531,-0.8527010083198547,-2.0378079414367676,-0.022284813225269318,0.6549677848815918,0.5657954216003418,0.4598709046840668,-0.333365261554718,0.6333025097846985,-0.026056934148073196,-0.28633755445480347,-0.1708764284849167,0.24787196516990662,-0.5622361898422241,0.5746093988418579,0.3662039339542389,-0.75652676820755,-0.1751597374677658,-0.7753369808197021,-0.8606547713279724,-1.1868170499801636,-0.11314942687749863,-2.739314556121826,-0.7960690259933472,0.8180710077285767,0.0926877036690712,-1.7540098428726196,0.3343035578727722,-0.503542959690094,0.2023806869983673,1.7644083499908447,-2.5809738636016846,0.45659178495407104,0.09701376408338547,0.9940458536148071,0.5525658130645752,0.766258716583252,-0.6622563004493713,-1.0849661827087402,2.0277152061462402,0.09384637326002121,-0.22378814220428467,-2.566622257232666,-0.8500674366950989,-0.72904372215271,0.8345341086387634,-1.191800832748413,0.5860922336578369,-3.138120412826538,-0.7411544919013977,0.5783504247665405,0.9275051355361938,0.9501970410346985,-1.0739891529083252,-0.1266709566116333,-0.1962987780570984,2.136631488800049,-0.16958416998386383,-0.37264832854270935,-0.7082729935646057,0.207543283700943,-0.7989532351493835,-2.106262683868408,-0.39491525292396545,1.7910454273223877,-0.08014264702796936,-2.402034044265747,0.7290549278259277,-0.47201064229011536,0.07550786435604095,0.9725265502929688,0.6065735816955566,0.15208035707473755,-0.05785411223769188,-1.1314433813095093,-0.35927125811576843,0.8198158740997314,-0.9761565923690796,-0.748349666595459,-0.524147629737854,-0.35293442010879517,1.1195234060287476,1.790999412536621,1.3849939107894897,0.3288794457912445,0.9485288262367249,0.7139089107513428,0.21187208592891693,-0.36103829741477966,-0.1834547221660614,0.6963011622428894,1.3073476552963257,0.8538234829902649,-0.17302457988262177,-0.6186488270759583,0.2294265627861023,-0.1847374141216278]},"inputHidden":{"rows":20,"columns":20,"weights":[-0.12078951299190521,-0.09300915151834488,0.31058165431022644,0.6503943204879761,-0.26182878017425537,-0.2061849981546402,-0.0926303043961525,0.6008899211883545,-0.553921639919281,0.14579008519649506,-0.13147996366024017,0.24693188071250916,0.42183467745780945,-0.44763728976249695,0.4695347249507904,0.7356572151184082,0.3813447654247284,0.00398595305159688,0.6584231853485107,1.032107949256897,-0.10930650681257248,-0.6528683304786682,-0.8469195365905762,-1.9209983348846436,-2.8948121070861816,2.054506540298462,-1.146065592765808,1.2163989543914795,-0.41524216532707214,1.574038028717041,0.6917047500610352,0.9902540445327759,-0.26145002245903015,1.2240374088287354,-0.7018157243728638,1.1582117080688477,0.6913332939147949,0.3938007056713104,-0.436052143573761,0.5711008310317993,0.2525506913661957,0.6068029999732971,0.53632652759552,0.11992798000574112,-1.3283361196517944,-0.3403952419757843,-0.31022581458091736,-0.4526936709880829,0.4359094798564911,-0.12529724836349487,-0.37787216901779175,-0.4184974133968353,0.5813572406768799,0.7427107691764832,-0.8721141219139099,0.5272104740142822,0.4685437083244324,0.09172128140926361,0.4958758056163788,0.18109746277332306,0.20336094498634338,-0.028050433844327927,-1.8305437564849854,0.10149349272251129,0.22237113118171692,0.07859750092029572,-1.1299318075180054,-0.14396332204341888,-0.3028002083301544,-0.17549701035022736,0.2322119027376175,1.1872479915618896,-1.398200511932373,-0.6567208766937256,2.4776225090026855,-0.32193470001220703,-0.6760038733482361,-0.3251967430114746,-0.8654070496559143,-0.48091158270835876,2.3869853019714355,-0.19064271450042725,0.1252630650997162,-0.17875202000141144,-1.817405104637146,1.4982116222381592,-1.4644211530685425,0.1713971495628357,0.6713972091674805,0.43451759219169617,0.6919665932655334,-0.6060662269592285,-0.09096769243478775,-1.0295817852020264,1.0857075452804565,0.31663018465042114,0.1609625667333603,0.026298733428120613,-0.41092899441719055,-1.5191190242767334,-0.005268828943371773,0.8070345520973206,-0.6290501356124878,-0.19844532012939453,-0.4626089036464691,-1.0663002729415894,-1.3091341257095337,0.17724256217479706,0.20090168714523315,-0.04699113219976425,-0.6926695108413696,-0.13528980314731598,-0.8160310387611389,-1.842748761177063,0.9226595759391785,0.48188140988349915,0.09406920522451401,-1.0271843671798706,0.5757123231887817,0.2975601255893707,-4.036397933959961,-0.4870370924472809,-1.8763841390609741,-0.3354148268699646,1.3405125141143799,2.2436161041259766,-2.5145423412323,-3.6931283473968506,-0.9409268498420715,-1.0694479942321777,1.3533697128295898,0.7162343859672546,-2.128469944000244,-1.4636530876159668,0.4713817238807678,-3.0776724815368652,-3.809138536453247,-1.8841699361801147,0.7302181720733643,-1.9057132005691528,-1.3050495386123657,-1.0449789762496948,-0.6904664635658264,-0.48594146966934204,0.5322370529174805,-0.46019038558006287,-0.9606931209564209,-1.4350448846817017,0.6064861416816711,-0.3796231150627136,-0.3545326590538025,2.0889394283294678,-1.122133731842041,-1.0185155868530273,-3.190201759338379,-0.5115014314651489,-0.40577924251556396,-0.9980217814445496,-1.1279586553573608,-1.9691274166107178,0.5651922821998596,1.1833596229553223,0.7650654911994934,-1.111154317855835,-0.939730167388916,2.3406341075897217,-0.4670048952102661,-0.20057933032512665,-0.8110215067863464,0.8894054293632507,-0.6950774192810059,1.0282835960388184,0.8813410401344299,0.6935401558876038,0.20092643797397614,0.7397900223731995,1.1895685195922852,0.8795020580291748,1.6443227529525757,1.424591064453125,-0.034913867712020874,0.9656053781509399,1.0885692834854126,1.1579557657241821,-1.1921061277389526,1.0939730405807495,0.48117294907569885,-0.34728848934173584,0.026894716545939445,0.2619549632072449,1.355882167816162,-0.27757203578948975,0.16663378477096558,0.04932718724012375,0.5251136422157288,-0.7665989995002747,0.1512003093957901,0.12683306634426117,0.30093154311180115,0.7217409610748291,1.0256375074386597,0.7580009698867798,0.27885493636131287,0.3024917542934418,-0.3290465772151947,0.6876457333564758,-0.28214630484580994,0.06593643128871918,0.5242552161216736,-0.5609272718429565,-0.5188493132591248,-0.28431692719459534,-0.4941137135028839,-0.8380911946296692,0.3679610788822174,-0.2804112732410431,-0.6017424464225769,0.21516473591327667,-0.8577795624732971,-0.10641476511955261,-1.8554238080978394,-1.28705632686615,-1.5143818855285645,0.6886278986930847,-0.15548479557037354,0.5450189113616943,-0.5341888666152954,-2.5373854637145996,1.025892734527588,0.33708736300468445,1.372553825378418,-0.08915341645479202,-0.345619261264801,-1.1880935430526733,0.27221760153770447,-1.5639365911483765,-1.9664123058319092,-0.36779630184173584,-1.6159886121749878,-2.694459915161133,0.6610879302024841,1.614332914352417,0.14537881314754486,-3.4585328102111816,-2.040292263031006,1.2076454162597656,-1.1554322242736816,-1.5822795629501343,1.1432801485061646,1.2189282178878784,-0.7753728032112122,-1.2863812446594238,0.6546283960342407,-0.6307418346405029,-2.4413278102874756,-0.03361523896455765,-0.4623587131500244,1.6159793138504028,0.17253609001636505,0.2441045343875885,-0.9218675494194031,-1.0680464506149292,-0.30122554302215576,-1.526366949081421,1.968477487564087,1.6392420530319214,-1.8171098232269287,-2.050058364868164,0.2836143374443054,-1.6971865892410278,0.38724076747894287,1.3722704648971558,-0.604498565196991,-1.620932936668396,-1.1811251640319824,-1.6343016624450684,-1.973023533821106,-1.4852421283721924,-0.2897739112377167,-1.2153522968292236,0.0009502267930656672,0.4189927577972412,0.4690439999103546,0.20099930465221405,0.07385781407356262,-1.8586711883544922,0.33591678738594055,0.3310616612434387,-0.8100351691246033,0.006641032174229622,-0.639537513256073,-0.5653961896896362,0.7407850027084351,0.5183660387992859,-0.8186084628105164,1.228711485862732,1.5403205156326294,0.6168412566184998,0.6642275452613831,0.6598176956176758,-1.3962061405181885,0.2140299528837204,3.069303274154663,0.09543521702289581,0.4766126275062561,-1.382247805595398,3.216364622116089,0.0957440659403801,-1.4109052419662476,0.3333548903465271,0.8137264847755432,-1.2605628967285156,1.8723649978637695,0.44609829783439636,-1.1278748512268066,0.08894874155521393,1.1844117641448975,-0.38499006628990173,1.8339024782180786,1.2967944145202637,0.20566721260547638,0.30612701177597046,0.3366127014160156,0.4581848978996277,-0.8328779935836792,0.10216045379638672,0.4224236309528351,-0.08985362946987152,-1.0930274724960327,0.4954051971435547,-0.6338106989860535,-0.41424688696861267,0.6972948908805847,-0.5438798069953918,-0.21851515769958496,0.4397544264793396,0.27080103754997253,0.6134186387062073,0.4792611300945282,-0.10677221417427063,-0.512738823890686,-0.38109368085861206,0.3143671154975891,0.41590893268585205,0.7625585198402405,-0.5903721451759338,1.2755030393600464,-0.8472797870635986,-1.081371784210205,0.3801966607570648,0.8970555067062378,-0.6227657794952393,0.41738271713256836,-0.7415640950202942,1.3266825675964355,0.8363358378410339,-0.6530114412307739,-0.33119437098503113,0.5768607258796692,0.3113531470298767,0.5845979452133179,0.6051543354988098,0.4079315662384033,0.11988672614097595,-0.14207150042057037,0.26962143182754517,0.45304882526397705,-0.6857728958129883,-0.08420640975236893,0.040952056646347046,0.006928136106580496,-0.7029936909675598,0.4628765881061554,0.3083404302597046,0.5705894827842712,0.33143630623817444,0.5143024325370789,0.24906392395496368,1.2056894302368164,0.3446304202079773,0.5154510140419006,0.8103662133216858,0.8024506568908691,-0.7678239941596985,-1.6658711433410645,1.3385616540908813,-0.12332673370838165,-0.1425582468509674,-1.0572909116744995,0.688625693321228,0.09828443825244904,0.3383144438266754,1.1910898685455322,0.03662160038948059,0.317853718996048,1.5900925397872925,1.8768362998962402,0.3471373915672302,0.31596556305885315,-0.25534626841545105]},"inputBias":{"rows":20,"columns":1,"weights":[-0.44693854451179504,0.29191043972969055,-0.3692251741886139,0.6176320314407349,0.4096740484237671,0.7344431281089783,-0.9995622634887695,0.2732018530368805,0.23495091497898102,0.6225129961967468,0.22678986191749573,-2.3336477279663086,-0.10636308044195175,1.0679192543029785,-0.11512713879346848,0.06296087801456451,0.20945218205451965,-0.7738707661628723,0.2162233144044876,-0.5914151668548584]},"forgetMatrix":{"rows":20,"columns":46,"weights":[-1.1616572141647339,-0.33603784441947937,1.6169410943984985,-0.26463812589645386,0.0034257431980222464,-0.4273788034915924,-1.8280308246612549,0.8940544724464417,-0.7541888356208801,0.7781403660774231,1.0456238985061646,0.09295880794525146,0.33755019307136536,-0.09817791730165482,-0.7743343710899353,0.14298015832901,-0.9382911324501038,-0.5322023034095764,-1.105867862701416,0.17054738104343414,-0.026615343987941742,-0.05317484214901924,0.3637043237686157,-0.2485770881175995,-0.563933253288269,-0.3782801926136017,-0.7249656915664673,0.510791540145874,0.4913877844810486,0.8790512084960938,-0.9390295743942261,-0.039647601544857025,-0.3869026005268097,-0.9733219742774963,1.064597725868225,-0.9779253602027893,0.047867804765701294,-0.07404685765504837,-1.3905422687530518,0.015122571028769016,-0.08972232788801193,-0.16483479738235474,0.17723077535629272,-0.5538873076438904,-0.15094201266765594,1.1872437000274658,-0.4691354036331177,0.5004869699478149,0.44229188561439514,-0.03467031195759773,-0.4651327431201935,-1.0584611892700195,0.7292280197143555,0.9711313247680664,-0.08309130370616913,1.0336569547653198,0.584763765335083,-0.7931880950927734,-1.6289325952529907,-0.3305307924747467,-1.0162198543548584,-1.1057714223861694,1.0482348203659058,-0.8998942971229553,-0.5266122221946716,1.2611180543899536,-0.07684790343046188,-1.432814598083496,1.0145272016525269,-0.14813171327114105,-0.7351499199867249,0.48008081316947937,-1.2385855913162231,0.5262242555618286,1.2249515056610107,1.1606849431991577,0.6568335294723511,0.7873978614807129,0.5181035995483398,0.11320526897907257,0.7489839792251587,0.6558788418769836,0.35399508476257324,-0.9847021698951721,-0.8048376441001892,-0.16758450865745544,0.3053342401981354,-0.48298379778862,0.044759511947631836,-1.4308258295059204,-0.6992300152778625,0.5993840098381042,0.4475996196269989,1.1596477031707764,-1.3812676668167114,-0.657124400138855,-0.9253700971603394,0.9086515307426453,0.3868202865123749,-0.08123543858528137,-1.0327763557434082,0.5218724012374878,0.1174011304974556,-0.8450020551681519,-0.14905737340450287,-0.14226417243480682,0.21144963800907135,-1.2117292881011963,0.6596512794494629,-0.5556963086128235,0.43565884232521057,1.6693933010101318,0.7422083020210266,-1.4502099752426147,0.18565037846565247,0.2647702097892761,-1.3309415578842163,0.30494722723960876,-1.0602980852127075,-0.19035691022872925,-0.3638896048069,1.4828201532363892,0.8519928455352783,1.4905816316604614,1.409846544265747,-0.4371102750301361,1.1871610879898071,0.43630361557006836,-0.019177062436938286,-0.8826313614845276,-0.17984016239643097,-1.4923615455627441,1.9613761901855469,-0.5953959226608276,-0.8284871578216553,-1.4095234870910645,-1.1070802211761475,0.18671855330467224,0.4938804805278778,0.617149829864502,-0.26607149839401245,0.34844064712524414,-0.29857316613197327,-1.5150246620178223,0.07839349657297134,0.5489481091499329,-0.2179604172706604,-0.4318062365055084,0.6314886808395386,-0.3413390517234802,-0.7717913389205933,-1.0055726766586304,-0.05855752155184746,-1.6175354719161987,0.6170992851257324,-1.5452594757080078,-0.2449672520160675,1.5438735485076904,0.21596243977546692,-1.435271978378296,0.003560340031981468,-0.1207597628235817,-0.9698166847229004,1.5954835414886475,-1.7593364715576172,0.2074970006942749,0.6023417115211487,1.4978736639022827,0.8176938891410828,1.3561172485351562,0.6138116121292114,0.15735973417758942,1.6733578443527222,0.5496839284896851,-1.046875238418579,-0.8980910778045654,0.25621843338012695,-1.7020833492279053,1.063319206237793,-0.6615229249000549,-0.08595235645771027,-1.794260859489441,-1.1176577806472778,0.15090037882328033,1.1885162591934204,-1.053059697151184,0.13159531354904175,-0.307303786277771,-0.15196821093559265,-0.8467716574668884,0.0915929526090622,0.3869190514087677,1.460908055305481,-0.276681512594223,0.6624078154563904,1.2362159490585327,-0.33624503016471863,-0.0476028136909008,-0.17206606268882751,1.0241692066192627,0.09040763974189758,0.5948605537414551,-0.30270758271217346,-1.2441507577896118,0.2753816545009613,1.0774463415145874,0.6664078235626221,0.6682524681091309,1.4626566171646118,0.006757283583283424,1.0940223932266235,0.8687836527824402,0.9060770869255066,-1.14972984790802,0.012796483933925629,-1.6487361192703247,-0.8568478226661682,0.09022384881973267,-0.5242419242858887,0.054692383855581284,-0.33956027030944824,0.18803907930850983,0.24364322423934937,0.3698456585407257,-1.3087081909179688,0.7974092364311218,-0.6872507929801941,0.7089234590530396,1.5773438215255737,-0.3298371136188507,0.716898500919342,-0.4785495102405548,0.47096866369247437,-1.285399079322815,0.29092341661453247,0.4465804994106293,-1.2024415731430054,-0.6599127650260925,-0.8148860931396484,0.6985421776771545,-0.24657480418682098,0.1829541176557541,1.0139144659042358,-0.3816002309322357,1.0643141269683838,1.5354398488998413,-1.0709114074707031,0.6915482878684998,0.5049095749855042,-0.6599848866462708,-0.2423434555530548,-0.06816127151250839,-1.2298446893692017,-0.26626816391944885,-0.6434037089347839,-1.10145902633667,-0.6531408429145813,0.23876571655273438,-0.34596550464630127,-0.770517110824585,-2.4927942752838135,-1.4730594158172607,1.2785595655441284,0.276091068983078,-0.9549152255058289,-1.6933238506317139,1.4817874431610107,-1.2413660287857056,-0.09630656987428665,0.3116120994091034,-1.3784492015838623,-0.466429203748703,-0.6455692648887634,-0.3988514542579651,0.7021676301956177,0.37150487303733826,-0.39667755365371704,0.08421841263771057,-1.5352813005447388,-1.4490525722503662,-0.7201555371284485,-0.472738653421402,1.0394567251205444,0.5537313222885132,-0.5515283346176147,1.3892595767974854,1.9030015468597412,0.004838212393224239,-0.423729807138443,-2.318502187728882,0.3175220489501953,-0.6517460942268372,1.2978225946426392,-0.847618818283081,-0.46186336874961853,0.4502728581428528,0.26389992237091064,-0.4279496669769287,-0.018686240538954735,0.597876250743866,-0.42821624875068665,0.799680769443512,-0.07892732322216034,1.103097915649414,0.5961254239082336,-0.06746147572994232,0.6842444539070129,0.5477880835533142,1.6927416324615479,-1.6005886793136597,-0.11019133776426315,1.2415755987167358,1.5960379838943481,-1.2181551456451416,-1.268230676651001,-0.6129909753799438,0.6203607320785522,0.14625443518161774,-0.12531065940856934,-0.27151983976364136,-0.3573629856109619,1.1234239339828491,0.2271648347377777,-0.007320353761315346,-0.9228909611701965,-0.4460391402244568,-0.6639984846115112,-1.6582814455032349,1.1291234493255615,-0.41556456685066223,0.5740996599197388,0.10496281087398529,0.8280737400054932,-0.06977396458387375,-0.9591734409332275,-1.585481882095337,-0.21516774594783783,-0.9842878580093384,0.8130600452423096,-0.37754958868026733,0.3643127977848053,0.9937490820884705,0.6265536546707153,-0.7677671909332275,0.4819549024105072,-0.562690258026123,0.45484185218811035,0.9918971061706543,-0.17196248471736908,0.06985544413328171,0.2944958806037903,0.6118543744087219,0.46361395716667175,0.08883387595415115,0.17845700681209564,0.3159414529800415,0.0999019518494606,1.243694543838501,-0.14880841970443726,-0.553825318813324,0.34380704164505005,-0.6780820488929749,0.10791157186031342,-0.08129764348268509,-0.12150383740663528,-0.1920144110918045,-0.09773586690425873,0.014952325262129307,-0.5924960970878601,0.017173726111650467,-0.31490975618362427,-0.7485947012901306,0.1159597709774971,-1.908396601676941,-0.46005696058273315,0.852009117603302,-0.5613217353820801,0.7728484869003296,1.1157994270324707,0.1977681666612625,0.025195518508553505,-1.2221956253051758,0.014862495474517345,-0.12065550684928894,0.4650239944458008,-0.5604768395423889,-0.6467552781105042,0.17060647904872894,0.10669209063053131,-0.10969190299510956,-0.03565354272723198,0.5495394468307495,-0.4112684428691864,0.8125843405723572,-0.328093022108078,0.9329788684844971,0.20290644466876984,0.3749082386493683,-0.17021618783473969,-0.0626746341586113,0.46648460626602173,-0.8496346473693848,0.51290363073349,-0.5096010565757751,0.4649224579334259,-0.36541062593460083,-0.7611405253410339,-0.3202037215232849,-0.11903570592403412,0.016378723084926605,-0.7061138153076172,-0.31790605187416077,0.06522613763809204,1.016749382019043,0.1492179036140442,0.45270299911499023,-0.5641217827796936,1.374835729598999,-1.6635671854019165,-0.12183175981044769,0.5106300115585327,0.4264049232006073,0.7832322716712952,0.00860248226672411,-0.09234052896499634,-0.9591213464736938,-1.2450822591781616,0.03664245828986168,-1.033337116241455,-0.9866213202476501,1.5806949138641357,-0.2939348816871643,0.970391035079956,0.665442168712616,1.2644193172454834,-0.3375161290168762,1.2677979469299316,0.49231529235839844,-1.638046145439148,0.1207650750875473,-1.5652837753295898,-0.5362131595611572,1.1150152683258057,0.9364650249481201,1.3385313749313354,0.9694046378135681,0.46074771881103516,0.03137194737792015,1.2152988910675049,1.3336375951766968,-1.237479329109192,-0.3401588201522827,-0.20528356730937958,-0.9344203472137451,0.8335044980049133,-0.49087369441986084,-1.2762715816497803,-1.1986229419708252,-0.7376490831375122,0.3027341365814209,0.4949539601802826,-0.17331978678703308,0.5108425617218018,0.08184728771448135,-1.5955134630203247,0.3660648465156555,0.18293017148971558,1.268848180770874,1.6867763996124268,-1.1996678113937378,-2.221757650375366,-0.07608386129140854,-1.2342209815979004,2.028217315673828,-0.9965409636497498,-0.5416699647903442,0.543128490447998,0.2460346668958664,0.16372814774513245,0.02806609682738781,1.661797285079956,-0.09213263541460037,0.5510870814323425,1.3561804294586182,-0.2590675950050354,0.7485955357551575,-1.064483880996704,-1.1973578929901123,0.4327622652053833,0.7064999938011169,1.3143882751464844,0.40976712107658386,0.3046606183052063,0.46641626954078674,0.8796808123588562,0.1561499834060669,-2.6606674194335938,0.8944167494773865,0.6545572876930237,-1.2442400455474854,0.2691498398780823,0.20478025078773499,-1.51596999168396,-0.706173837184906,0.14394451677799225,-1.735882043838501,-1.084499478340149,1.180161952972412,-0.08479680120944977,0.02936449646949768,-1.5417264699935913,-0.7333949208259583,0.7454923391342163,1.0852150917053223,-0.31895267963409424,-0.4174676537513733,0.07454115897417068,-1.1328550577163696,-1.1895750761032104,0.5887957811355591,-0.7908452749252319,-0.8682706952095032,0.31555280089378357,0.2817155718803406,-0.009564577601850033,0.849128246307373,1.4203593730926514,-0.6505396962165833,0.5315091013908386,1.7475942373275757,-0.9676233530044556,-0.2656654119491577,-0.07231485843658447,-0.5278379321098328,0.16303569078445435,1.1682195663452148,0.8761372566223145,1.3375604152679443,0.7996611595153809,-0.12944847345352173,1.0343680381774902,-0.015091887675225735,-2.3895111083984375,0.6333847641944885,0.2003471851348877,-0.5049172639846802,1.705568790435791,-0.440486878156662,-1.7038540840148926,-0.806335985660553,-1.0937575101852417,-0.7585357427597046,-1.3054726123809814,0.4894436001777649,0.12431629747152328,1.8560665845870972,-0.31118863821029663,-0.6978251934051514,0.07076417654752731,0.50840163230896,0.07536886632442474,0.14513303339481354,0.3813985586166382,-1.2800341844558716,-1.3079646825790405,-0.07432376593351364,-1.2868512868881226,-1.0299181938171387,0.5250524878501892,0.1966015249490738,-0.11552062630653381,0.9227315783500671,0.5579373240470886,-0.6136242151260376,1.2573400735855103,0.4264732897281647,-0.7976365685462952,-0.48720479011535645,-1.0220444202423096,-0.18356986343860626,1.4630392789840698,1.3082131147384644,0.16297970712184906,0.6302404403686523,0.28731364011764526,-0.04997236281633377,1.2256603240966797,0.26409828662872314,-0.2693493664264679,-0.06151614710688591,-0.35675373673439026,0.6208621859550476,0.5940507650375366,-1.4808902740478516,-0.29245060682296753,-1.282642126083374,-0.9541444778442383,0.1955745369195938,-0.8489033579826355,1.321528434753418,-0.7399970889091492,0.22251521050930023,0.26893115043640137,-1.169347882270813,1.0245492458343506,0.6740798950195312,-2.897008180618286,0.000002136582452294533,2.4485599994659424,-1.2830784320831299,-0.9092337489128113,-0.8798561096191406,-0.9699063301086426,-1.0252362489700317,-0.08835263550281525,-1.049343466758728,-0.716793417930603,1.3458164930343628,-0.14860829710960388,-1.6620010137557983,1.3685297966003418,-0.2545625567436218,-0.16039681434631348,-0.06856158375740051,-1.0038515329360962,1.8533964157104492,0.7772145867347717,0.8834266662597656,-0.025698335841298103,1.393635869026184,0.1502934694290161,-1.3518723249435425,1.2882670164108276,1.0783164501190186,0.18070703744888306,-1.926832914352417,-1.2249242067337036,0.01853187382221222,1.2044856548309326,-1.7746500968933105,0.2933906018733978,-1.2537590265274048,-1.6388286352157593,1.4249767065048218,0.43665775656700134,-0.5375442504882812,-0.08015205711126328,-1.259932518005371,1.365902066230774,0.22918792068958282,-2.4231481552124023,0.0022244341671466827,-0.8310301303863525,0.8375501036643982,0.9749195575714111,0.692922830581665,1.945391058921814,-0.4106025993824005,1.6251009702682495,0.08698731660842896,-1.4511035680770874,0.4742720425128937,-0.06671026349067688,0.00422651506960392,-1.5510481595993042,0.15895643830299377,-0.4743334650993347,0.03523973748087883,-0.09757939726114273,-0.2056567668914795,0.13077060878276825,-0.15917785465717316,-2.6766409873962402,0.07362377643585205,-2.128647804260254,-0.8457348942756653,1.6748833656311035,-0.438644140958786,-0.09641008079051971,-1.5551528930664062,1.6146304607391357,0.8773576617240906,-0.366484671831131,0.21965183317661285,-0.6545029282569885,0.5284406542778015,1.0021775960922241,0.2840329110622406,0.28549617528915405,0.26067763566970825,-0.40305453538894653,-0.5285729765892029,-0.4007142186164856,-0.3238276541233063,0.009139512665569782,-2.2488040924072266,1.0076265335083008,0.8748260140419006,0.39740878343582153,0.7557587623596191,1.5787078142166138,0.573053240776062,-0.3394332826137543,-1.5287400484085083,0.15942683815956116,0.2454962581396103,0.7587387561798096,-0.05940942466259003,-0.9344519972801208,-0.45059847831726074,0.4564710557460785,0.36063089966773987,0.40113309025764465,0.1949918270111084,0.32572296261787415,0.36741694808006287,0.2999538779258728,0.9564663767814636,0.17026598751544952,-0.3881080746650696,0.3933559060096741,-0.49880164861679077,-0.2391754388809204,-0.6337407231330872,-0.20685450732707977,0.7966699600219727,-0.20596860349178314,0.31823715567588806,-0.30128195881843567,0.6048889756202698,-0.5957152247428894,0.5387892723083496,-0.690956175327301,0.20922762155532837,0.6554124355316162,0.8210371732711792,0.2785446345806122,0.013425882905721664,-0.9004513025283813,-2.144239902496338,-0.1285773664712906,-1.834869146347046,0.7067044973373413,0.42807066440582275,0.1932315230369568,0.460221529006958,1.5802662372589111,0.2711859345436096,-0.34253883361816406,-1.8362746238708496,-0.020636526867747307,-0.7012550830841064,0.8085083961486816,-0.5617665648460388,-0.2051467001438141,0.5292563438415527,-0.06415585428476334,-0.6508381366729736,0.1651722937822342,-0.036500733345746994,-0.3450913727283478,1.4548497200012207,-0.35099294781684875,0.4595068693161011,-0.04062723368406296,0.3806174099445343,0.6100983023643494,0.009035242721438408,1.4479625225067139,-0.5307292938232422,0.20466884970664978,1.3308794498443604,0.9410087466239929,-0.8603824973106384,-0.3467187285423279,-0.7361668348312378,0.14152570068836212,0.4526127874851227,-0.15153037011623383,-0.23879235982894897,-0.034784749150276184,0.486462265253067,0.49352455139160156,0.26552942395210266,-0.42622673511505127,0.09851276129484177,-1.2642395496368408,-1.812587857246399,2.459533929824829,-0.6552190780639648,0.547537624835968,-0.13863350450992584,0.5211561322212219,-0.7201246619224548,-1.6782538890838623,-0.9652950167655945,-1.9212156534194946,-0.5381778478622437,1.4163649082183838,0.39241454005241394,1.0838475227355957,0.4343973696231842,0.8061066269874573,-0.605283796787262,0.992931067943573,-0.29316818714141846,-1.188309669494629,0.1440611332654953,0.04921296238899231,-0.3709942400455475,2.607982635498047,0.1722906529903412,1.552628517150879,0.9153105020523071,0.3695235848426819,0.1077677384018898,-0.4034302830696106,2.435807228088379,0.29692018032073975,-0.48700419068336487,-0.20623992383480072,-0.5151265859603882,0.5950567126274109,-0.2448069006204605,-1.1116937398910522,-0.2087719440460205,-0.7929201126098633,0.01776207610964775,-0.8336166739463806,0.1926821917295456,-0.7770980000495911,-0.4019820988178253,0.04369552806019783,-1.3471862077713013,-0.220611110329628,1.0815167427062988,-1.1056804656982422,1.6939728260040283,1.3880268335342407,-0.16266027092933655,-0.3179594576358795,-1.4005247354507446,-0.31653398275375366,-0.20380501449108124,0.7732409834861755,-0.630923867225647,-0.7476662397384644,0.13572484254837036,0.5482704639434814,-0.1222197487950325,0.11262426525354385,1.3029396533966064,-0.5157136917114258,0.4369969367980957,-0.22755607962608337,0.7964726090431213,0.6239747405052185,0.22012975811958313,0.38924840092658997,-0.018508173525333405,0.4983118772506714,-1.5302642583847046,0.33672595024108887,0.08841830492019653,0.8001464009284973,-0.2566419541835785,-1.5492644309997559,-0.06948962062597275,0.041815631091594696,-0.06838499009609222,-1.184409260749817,-0.10500979423522949,-0.10939113050699234,1.5419059991836548,0.7915148138999939,0.3127882778644562,-0.4348144233226776,-1.6291592121124268,-0.1986818015575409,-1.9754101037979126,0.028915248811244965,-0.022928742691874504,-0.30005717277526855,0.061536312103271484,0.9925134181976318,-0.30990347266197205,-0.08804831653833389,-2.1852242946624756,0.5529214143753052,-1.0577620267868042,0.42843303084373474,-1.553414225578308,-0.39631345868110657,0.947412371635437,-0.060132596641778946,-1.122538447380066,-0.6868808269500732,-0.6392715573310852,-0.7384212017059326,1.762596845626831,-1.2567901611328125,0.4432408809661865,-0.604562520980835,0.9830889105796814,0.3572881817817688,0.20987170934677124,1.1495764255523682,-0.8338411450386047,0.8235863447189331,0.1280432939529419,0.33089619874954224,-0.6848903298377991,-0.3893410563468933,-0.9520102143287659,0.21060964465141296,-0.21780678629875183,0.16420863568782806,-0.9642768502235413,-0.32056406140327454,0.11638902872800827]},"forgetHidden":{"rows":20,"columns":20,"weights":[-2.308682441711426,-1.6263471841812134,-3.4247186183929443,0.3574340045452118,1.9114371538162231,3.949486255645752,-1.364578127861023,-1.9273450374603271,-0.8474839925765991,1.0977809429168701,0.5688832998275757,-0.061288099735975266,0.13104473054409027,-0.5933074355125427,1.9916123151779175,-1.9874964952468872,-1.8960150480270386,-0.1657440960407257,-1.1357316970825195,-3.181297540664673,-2.9869143962860107,0.06668325513601303,-0.8853029608726501,-0.30910471081733704,-0.11973603069782257,-0.05359874293208122,0.895914614200592,-0.07237578183412552,0.05960557237267494,0.6532847881317139,0.5487293601036072,-0.01912974938750267,-1.7384377717971802,-0.8601702451705933,1.3143224716186523,-0.535097599029541,-1.5041496753692627,-0.07876116782426834,-1.2430219650268555,-1.5634151697158813,-0.257779598236084,-0.8410136699676514,-0.45442065596580505,0.4530056118965149,0.47972869873046875,0.8442867398262024,0.23199281096458435,0.6042974591255188,-0.19508598744869232,0.5134705901145935,0.4958532154560089,0.6629845499992371,-0.8332828283309937,-0.7849867343902588,0.4523525834083557,0.4935852289199829,0.17673540115356445,-0.44107237458229065,-0.4618191123008728,-0.6645724773406982,-1.1039245128631592,-0.30267858505249023,-0.01831991598010063,-0.1933816373348236,-0.04988856986165047,0.5253008604049683,0.5480347871780396,0.6850427389144897,-0.05395090579986572,0.6562240719795227,0.1355411261320114,0.15722979605197906,-0.10578713566064835,-0.33818113803863525,0.5159067511558533,-0.1335185021162033,-0.19068831205368042,-0.03698275610804558,-0.3582090735435486,-0.5523645281791687,-0.6005234122276306,-0.6013073921203613,-2.205918788909912,0.4789583384990692,1.124094009399414,0.21584969758987427,-2.5793979167938232,-1.2205666303634644,0.7530208230018616,-1.230165958404541,0.5738242864608765,0.7559642791748047,-0.9379581809043884,-1.0165482759475708,1.9011709690093994,-1.5790263414382935,-1.7969638109207153,-0.5561295747756958,-1.2440909147262573,-2.096756935119629,-0.11223460733890533,1.191636085510254,0.5621589422225952,-1.6613298654556274,-1.389305830001831,-0.9993531703948975,0.8296659588813782,0.13313862681388855,-0.4444604218006134,1.2069354057312012,-1.8190550804138184,-0.06145427003502846,0.8863460421562195,0.9015712738037109,-1.2524919509887695,0.17304466664791107,0.1803174614906311,0.6307483911514282,1.0170131921768188,0.61774080991745,-0.2263936996459961,-0.3161354660987854,0.17848581075668335,0.07794953882694244,-0.07423080503940582,0.07789754867553711,0.013612178154289722,0.6026965975761414,0.19927972555160522,0.8089154362678528,-0.6520411968231201,0.20952484011650085,-0.09983034431934357,-0.03914780169725418,0.179897278547287,0.2068309634923935,0.45694372057914734,-0.3548118770122528,-0.14880730211734772,-0.35438528656959534,1.7870169878005981,1.977871060371399,1.8255172967910767,-1.931268334388733,-0.26534324884414673,1.93744695186615,1.2874468564987183,0.9150639772415161,-0.2814326882362366,1.0994218587875366,-1.4627201557159424,-1.733991026878357,1.9402976036071777,1.8071296215057373,-1.966783046722412,1.2526487112045288,1.344704031944275,1.934390664100647,1.3747005462646484,0.4344389736652374,0.011598093435168266,0.3798607289791107,0.014081385917961597,-0.8584718108177185,-0.8973418474197388,0.008201236836612225,-0.23492293059825897,-0.19941577315330505,-0.5780107975006104,0.7730430364608765,-0.7862256169319153,-0.7386891841888428,0.366502583026886,0.7449091672897339,0.5031007528305054,-0.22068096697330475,-0.21588028967380524,0.6984300017356873,0.6004168391227722,-0.06505131721496582,-0.26944658160209656,0.08177492767572403,-0.11088664084672928,0.7122343182563782,-0.5665846467018127,0.3031676113605499,1.7664196491241455,2.8024275302886963,1.2798562049865723,0.15290413796901703,1.0960419178009033,-0.2244250625371933,-1.4919452667236328,-0.5912023782730103,2.480485439300537,-0.1371968388557434,-1.0155328512191772,-0.08214975148439407,-1.9195629358291626,-0.4346841871738434,-0.694047212600708,-0.6069109439849854,0.8380133509635925,0.4214459955692291,0.4405296742916107,-1.1484686136245728,0.703813910484314,0.012277117930352688,-0.2592911422252655,-0.38478752970695496,0.6601952314376831,0.4879777133464813,-0.35844603180885315,-0.8768610954284668,-0.23349380493164062,-0.4661399722099304,0.006917567458003759,-0.4419054388999939,0.01381552591919899,-0.10209134966135025,-0.7367334365844727,-3.0142319202423096,-1.612752079963684,1.521376371383667,1.3536131381988525,1.6008909940719604,-1.4719165563583374,-1.2414207458496094,0.21450044214725494,-1.2496355772018433,1.4222041368484497,2.8048629760742188,-1.648056983947754,-1.2742515802383423,0.17190104722976685,-0.6045712828636169,-0.17221148312091827,-1.841987133026123,-1.8131253719329834,0.25241586565971375,0.34388062357902527,0.5620831847190857,2.1035072803497314,-1.901387095451355,-1.4109406471252441,-0.30554696917533875,1.6544147729873657,1.0136549472808838,-0.6514335870742798,-0.1746031939983368,-0.11301267892122269,-1.3775802850723267,1.7043476104736328,1.1984935998916626,-1.4475241899490356,0.6477051377296448,0.886839747428894,0.46158963441848755,1.1135039329528809,0.3420771062374115,0.06937693804502487,2.3891899585723877,1.1418139934539795,0.09130402654409409,-1.3654682636260986,0.25583386421203613,0.9032350182533264,1.0946173667907715,0.9565585851669312,-1.9733966588974,2.2233378887176514,0.48793816566467285,-1.2718968391418457,-0.4464411735534668,-0.4645521640777588,1.3692361116409302,0.7875129580497742,-0.5052107572555542,-1.2781107425689697,1.9439336061477661,0.5653261542320251,1.4972970485687256,-0.2826823890209198,-0.07511686533689499,-1.4641631841659546,-0.9136194586753845,-1.6489306688308716,-0.9969325661659241,0.8502140045166016,-0.30612093210220337,-0.6333851218223572,-1.2647894620895386,0.6492249369621277,-0.28927507996559143,-0.6061676740646362,1.9039337635040283,1.6502310037612915,0.741814911365509,0.13377942144870758,1.4708986282348633,0.9420056343078613,0.41050443053245544,0.9980983734130859,-0.8353658318519592,-0.9608765244483948,-0.1800631582736969,0.1796960085630417,0.8636542558670044,-0.7783837914466858,0.6836530566215515,-0.9841920137405396,-0.7903906106948853,0.7697582840919495,0.7468031644821167,-0.694383978843689,0.4449542164802551,0.4141063690185547,0.8997529149055481,0.9114460349082947,0.2875947654247284,0.11113520711660385,-0.10055585950613022,0.6983551383018494,-0.07791800796985626,-0.7246690392494202,0.11521759629249573,0.8091685771942139,0.8418350219726562,0.10081382840871811,0.8308476805686951,-0.0980101153254509,-0.3530406355857849,0.3132716119289398,0.3721999228000641,0.04768873006105423,0.5222216844558716,0.5773265361785889,0.20792928338050842,0.2503129839897156,-0.01278692577034235,0.11859048157930374,-0.018807634711265564,0.979758620262146,-0.3146808445453644,-0.6824775338172913,0.29028236865997314,1.3296759128570557,0.27049732208251953,-0.48091045022010803,0.5110546350479126,-0.29437440633773804,-0.5547208786010742,0.4253421723842621,0.04423534497618675,0.6519445180892944,-0.027719654142856598,0.20009703934192657,0.28084731101989746,0.5736509561538696,-0.0486738383769989,0.5229780673980713,0.6049216985702515,1.7015820741653442,-0.3920799493789673,-0.6319564580917358,-0.6270431280136108,1.234773874282837,1.4246186017990112,0.12259728461503983,-0.33903664350509644,-0.0614747628569603,-0.6533982157707214,0.4904650151729584,0.2686590552330017,-1.226820945739746,0.6835507154464722,0.6416462063789368,0.23063214123249054,0.3333127498626709,0.8527233600616455,0.12230721861124039,1.2561829090118408,0.18235966563224792,-0.7287753224372864,-0.024934377521276474,0.8587658405303955,0.4976104199886322,1.019365906715393,-0.0010945498943328857,0.10804467648267746,0.4652096927165985,0.09294722974300385,0.08642581850290298,0.11223866790533066,-1.786617636680603,1.2153762578964233,0.9089727401733398,-0.4146471917629242,0.04478457197546959,0.9924299120903015]},"forgetBias":{"rows":20,"columns":1,"weights":[0,0,0,0,0,0,0,0,0,0,0,0,0,0,0,0,0,0,0,0]},"outputMatrix":{"rows":20,"columns":46,"weights":[1.424249529838562,1.2226552963256836,-0.34096527099609375,-1.8016576766967773,-0.3109290599822998,0.9087350964546204,-0.15156443417072296,0.4985945224761963,-0.9117234349250793,0.1381956934928894,-0.039508670568466187,-0.507542073726654,0.043979328125715256,0.1675843894481659,-0.2383081018924713,-0.21658110618591309,0.7668143510818481,-1.0729142427444458,-0.5977068543434143,0.45698055624961853,0.31420472264289856,-0.8397998213768005,0.28526535630226135,0.3256915509700775,-0.6298545598983765,1.0193133354187012,-1.6250145435333252,0.039470624178647995,0.20443330705165863,0.4839009642601013,0.3825978636741638,0.8977654576301575,0.8632780909538269,-0.8296334147453308,1.4453214406967163,0.3485947847366333,0.35061755776405334,-2.09386944770813,-0.7583246827125549,-1.9756746292114258,1.265728235244751,-0.5060255527496338,-0.6079698204994202,-1.4920014142990112,-0.4007900059223175,-0.17568178474903107,-1.0761216878890991,0.7736649513244629,0.20418857038021088,0.5259640216827393,